%YAML:1.0
---
opencv_ml_svm:
   format: 3
   svmType: C_SVC
   kernel:
      type: LINEAR
   C: 2.6699999999999999e+00
   term_criteria: { epsilon:1.1920928955078125e-07, iterations:1000 }
   var_count: 64
   class_count: 10
   class_labels: !!opencv-matrix
      rows: 10
      cols: 1
      dt: i
      data: [ 0, 1, 2, 3, 4, 5, 6, 7, 8, 9 ]
   sv_total: 45
   support_vectors:
      - [ -3.86421152e-06, 1.96992896e-05, -4.15330760e-07,
          -1.71723441e-05, -1.43902173e-06, -8.88142608e-08,
          -6.87694666e-08, -2.33368240e-08, 2.48558490e-06,
          1.48223410e-06, 1.21131313e-06, -8.40469329e-06,
          -1.92221933e-06, -1.89549621e-06, -2.14679631e-06,
          -3.17435592e-06, 2.75551229e-05, 2.27442911e-06,
          -6.76352727e-07, -6.31972489e-06, -7.17705362e-08,
          4.80247354e-06, 6.88209866e-06, 2.90492135e-05, 4.38005736e-05,
          3.95450388e-06, 5.09298218e-07, -1.35554819e-05,
          -8.32239130e-06, 1.66925765e-05, 1.87583137e-05,
          1.01566884e-05, -5.85425505e-06, -5.10893369e-06,
          -4.88509386e-06, -1.01042406e-05, 1.30491253e-05,
          1.69525756e-05, 1.60789077e-05, -1.50874575e-05,
          -5.31404021e-06, 3.84526948e-06, 2.85063606e-06,
          2.14248985e-06, 8.37505831e-06, 8.54653808e-06, 3.69448048e-06,
          9.41690996e-06, 8.95384619e-06, 1.20531886e-05, 5.45469538e-06,
          1.19278156e-05, 1.38602163e-05, 6.10698226e-06, 2.19328103e-05,
          4.18617788e-07, 5.97572352e-06, 2.52692589e-05, 1.82762724e-05,
          1.78456776e-05, 6.98108579e-06, -6.73955765e-06,
          -3.74071760e-06, 3.55984448e-05 ]
      - [ -7.24084930e-06, -4.21091016e-07, 1.06995058e-05,
          2.21697383e-06, -5.65198199e-08, 2.69168765e-07,
          -1.80554295e-07, -5.54710091e-08, -2.04962433e-07,
          -1.36584021e-07, 6.77143134e-06, -2.51644246e-06,
          -4.34312960e-06, -3.97932081e-06, -1.46110631e-06,
          -2.38478242e-06, -1.13814713e-05, -1.27340627e-05,
          -1.29525888e-05, 1.13561282e-06, 1.53336100e-06,
          4.26398310e-06, 1.60814307e-05, 3.25217297e-05, 3.61331950e-05,
          -2.35598463e-06, -3.62820879e-06, -8.98064718e-06,
          -6.74201419e-06, 1.30101917e-05, 1.90582050e-05,
          1.32372734e-05, -4.82834146e-08, 2.04922543e-07,
          1.23840653e-06, 1.28014972e-05, 2.05485758e-05, 7.27858787e-06,
          -8.61839271e-06, -6.55666463e-06, -2.53201506e-06,
          -3.39019891e-07, 3.51471208e-08, 6.09599965e-06,
          3.50583468e-06, 3.61464640e-06, -6.76133311e-07,
          -2.22343175e-07, 2.32345465e-05, -6.21249546e-06,
          -3.29258091e-06, -9.34462241e-06, -9.90524677e-06,
          4.21143613e-06, 1.47557412e-05, 3.02595686e-06, 2.43540617e-05,
          -2.12159594e-05, -6.31227022e-06, 1.52896473e-06,
          -8.86494036e-06, 9.07524395e-07, 1.22275496e-05,
          3.46411689e-05 ]
      - [ -5.34403080e-06, -2.44211810e-06, 5.29864155e-06,
          6.35002971e-06, 3.24525581e-06, -6.53254091e-08,
          -1.32785061e-07, -2.05819731e-07, -5.23544657e-07,
          3.17913930e-07, 5.81258428e-06, -2.06108143e-06,
          -1.57234854e-06, -1.18908167e-06, -5.03181582e-07,
          -3.28322562e-06, 1.48841100e-05, -3.49917784e-08,
          -5.34327637e-06, -1.03522179e-05, -1.18356757e-05,
          5.09790937e-07, 1.12416001e-05, 4.01995130e-05, 5.59052678e-05,
          8.56932456e-06, -1.93815640e-06, -6.25322173e-06,
          -9.31963223e-06, 9.13196743e-07, 9.26119469e-07,
          1.24025883e-05, 8.67248886e-08, -1.84944270e-07,
          -8.74018902e-09, 3.73144621e-06, 1.51906625e-05,
          9.92988817e-07, -1.35072355e-06, -1.10941255e-05,
          -3.70810454e-07, -1.35976165e-06, -1.82570284e-06,
          4.61460832e-06, 4.18208629e-06, 2.79453388e-06,
          -3.91006324e-06, -3.03640331e-06, 1.23924792e-05,
          -3.42531990e-07, -1.63457080e-05, -2.07860612e-05,
          8.33601644e-06, -1.33681788e-05, -9.30913757e-06,
          3.90101195e-06, 2.12440336e-05, -2.06189816e-05,
          -4.68517669e-07, -2.10988219e-06, -1.05282597e-05,
          -1.64236717e-05, 1.69402142e-06, 2.37076110e-05 ]
      - [ -1.22385727e-05, 2.12783812e-06, 1.34652146e-05,
          6.58689214e-06, 7.78692140e-07, -3.33514748e-07,
          -2.77878218e-08, 7.46283177e-08, 7.34051923e-07,
          2.64107098e-06, 3.51406720e-06, 3.10129258e-06,
          -1.18471490e-07, -9.46981729e-08, -5.78573456e-08,
          -9.40572932e-07, 4.37940844e-06, -1.90654773e-05,
          -3.60427862e-06, -1.08226950e-05, -5.57653448e-06,
          3.42930025e-06, 1.09614575e-05, 2.75761067e-05, 2.87087496e-05,
          -8.34700859e-06, -1.33958156e-06, -1.53268666e-05,
          -1.48169793e-05, 1.55502821e-05, 1.66980590e-05,
          3.61370949e-05, 4.22807062e-07, -1.08496670e-05,
          -2.24001974e-06, 1.31238940e-05, 1.99892238e-05,
          1.65341607e-05, 6.82931113e-06, -1.42455738e-05,
          -1.12747939e-05, 2.33638070e-06, 1.92647190e-06,
          4.68293774e-06, 9.63126968e-06, 7.83025371e-06, 3.45445187e-06,
          3.68600831e-06, 1.18628022e-05, 5.02241164e-06, 2.30153023e-06,
          1.51521635e-06, -3.67159191e-06, -4.35533047e-06,
          9.79852121e-06, 4.12972258e-06, 2.28766908e-06, 7.17268813e-06,
          1.10928568e-05, 7.56176587e-06, 5.77828996e-06,
          -2.03311674e-06, 1.77229958e-06, 2.90814351e-05 ]
      - [ -2.14177726e-05, 7.46674505e-06, 1.43812413e-05,
          9.44805834e-06, -2.87025318e-06, 2.12459256e-07,
          -2.77965199e-07, -6.89382944e-07, -2.91600213e-06,
          -6.39194695e-07, 9.72687576e-06, -1.08111078e-06,
          9.25679871e-08, -1.02314539e-08, 9.44330836e-09,
          -2.86447380e-06, 5.70224893e-06, 2.74154763e-06,
          -3.31513456e-06, -6.59835951e-06, -1.10610699e-05,
          2.07930285e-07, 1.45840932e-05, 2.69979719e-05, 3.02714761e-05,
          1.09731427e-05, 3.82939561e-07, -5.36782545e-06,
          -1.36270601e-05, 2.92949881e-06, 1.11588743e-05,
          2.00667619e-05, -2.00279624e-06, -8.93258402e-07,
          -1.28256590e-06, -5.95295842e-06, 8.36278832e-06,
          1.36087128e-05, 6.05282639e-06, 3.33987214e-06,
          -9.12491214e-06, -4.38068810e-06, -2.99002068e-06,
          -1.87981732e-05, -1.99131887e-06, 8.22678976e-06,
          2.26953034e-06, -8.80676794e-07, 1.10365945e-05,
          7.37671326e-06, 4.97370092e-06, -5.03083629e-06,
          -1.58490038e-05, -8.48273248e-06, -3.02384080e-07,
          2.85825972e-05, 9.60296438e-06, -6.67637721e-07,
          1.05918025e-05, 8.87767953e-07, -1.07753822e-05,
          -6.33142372e-06, 3.74589740e-06, 1.82169188e-05 ]
      - [ -2.03091204e-07, -3.54061967e-06, 1.50680189e-05,
          1.60695345e-05, 2.08046094e-06, 2.18004203e-07,
          -8.28569625e-07, -9.23181062e-07, -5.54752205e-07,
          1.45087910e-07, 8.61337776e-06, -1.24399207e-07,
          -1.10993543e-08, -1.53072406e-07, 1.11161960e-08,
          -7.02979932e-08, -7.01526506e-06, -2.05218148e-05,
          -9.86539544e-06, -1.01410405e-05, 1.83079305e-06,
          -1.66588234e-06, 4.19371599e-06, 1.27715857e-05,
          2.80493641e-05, -1.78561841e-05, -1.25157685e-05,
          -1.33868681e-07, 4.41838574e-06, 6.48402010e-06,
          -3.46960246e-06, 8.02324575e-06, 4.12159778e-07,
          -5.23562505e-07, -2.63521215e-05, -2.18663699e-05,
          3.49992079e-05, 2.71800291e-05, 6.98265740e-06,
          -8.57296072e-07, -1.22281317e-05, -1.38356036e-05,
          -2.28083318e-05, -2.27348173e-05, 2.11295287e-06,
          8.08383083e-06, 3.01953150e-06, -1.55290110e-07,
          4.45122532e-05, 4.57673423e-06, -6.53829090e-07,
          -2.72084071e-05, -2.54776842e-05, -1.86463913e-05,
          9.12635187e-06, 2.51346992e-05, 2.81595167e-05,
          -1.63007026e-05, 5.85785892e-06, -1.10482988e-05,
          6.34483558e-06, -2.42310330e-06, 4.50496856e-07,
          3.70494054e-05 ]
      - [ -3.15336797e-06, 3.37785900e-06, 1.05761301e-05,
          -3.46425873e-06, -8.48955642e-06, 3.02586116e-08,
          -4.58311504e-08, -1.37030526e-07, 3.85844373e-07,
          3.59016803e-06, 4.64293134e-06, -2.86417639e-06,
          -1.29137288e-05, -2.41035991e-06, -1.61453272e-06,
          -4.27861141e-06, 1.28077081e-05, 4.96365146e-06,
          7.56786051e-07, -3.48516892e-07, 2.51572078e-06,
          6.20298215e-06, 1.01093856e-05, 2.24770465e-05, 3.34576944e-05,
          4.74156650e-06, 3.92553403e-08, -2.10045687e-06,
          1.06555026e-05, 1.28084212e-05, 1.46442462e-05, 1.12130119e-05,
          -2.14134616e-06, -7.39856318e-07, 1.54424106e-06,
          -1.30734834e-05, -9.88620104e-06, 1.17958189e-05,
          8.11817063e-06, -9.33880528e-06, 7.10526820e-07,
          -6.72619126e-06, 4.07167164e-07, -1.43041325e-06,
          -8.09589164e-06, 7.16659270e-06, 1.96106635e-06,
          1.56769840e-06, -7.47014383e-06, -1.84882483e-05,
          6.63100309e-06, 9.34067612e-06, 9.60631314e-06, 2.64413234e-06,
          1.36908357e-05, 3.56304508e-06, 6.19023058e-06,
          -7.58361693e-06, 1.18443040e-05, 1.02600716e-05,
          7.43440387e-06, 1.12748717e-06, 5.79893822e-06, 2.52587961e-05 ]
      - [ -1.76621252e-05, -1.76461435e-05, 1.38325495e-05,
          6.28452290e-06, 4.91840956e-06, 6.19331047e-07,
          -2.69276683e-07, -4.96089996e-08, -8.37862262e-06,
          -3.36065636e-06, 9.06297282e-06, -2.72003240e-06,
          5.02623038e-07, 8.67744703e-08, 3.09540553e-07,
          -1.12728735e-07, 2.23611223e-05, -1.21094590e-05,
          -1.66303435e-05, 2.57523061e-06, -7.82003826e-06,
          -1.05818453e-05, 2.79150345e-06, 2.16351764e-05,
          4.22656412e-05, 1.32748448e-06, -9.72499674e-06,
          -4.76864443e-06, 8.40695157e-06, -1.74158085e-05,
          -2.23195293e-05, 7.15674378e-06, 4.02175885e-07,
          2.65913854e-07, 1.33324806e-06, 1.21529856e-05, 1.60099153e-05,
          1.28457150e-05, -1.67697090e-05, -1.72876225e-05,
          -3.23619929e-06, -3.01726459e-06, -2.83177860e-06,
          -8.07535253e-06, -2.11589304e-06, 1.98508337e-06,
          -5.00289298e-06, -7.89009209e-06, 3.28366586e-05,
          -1.04070077e-05, -8.97227346e-06, -1.48207773e-05,
          -1.50360029e-05, -3.28778988e-05, -8.24517156e-06,
          2.95255923e-05, 9.82415986e-06, -3.76130956e-05,
          -1.55468598e-07, -1.20803790e-07, -1.44648595e-06,
          -4.10722241e-05, 1.55627713e-05, 3.74966112e-05 ]
      - [ -1.19184606e-05, -1.37957813e-05, 1.12547023e-05,
          1.25654560e-05, 5.02594185e-06, 3.80228329e-07,
          -1.97611058e-07, -6.49506227e-09, -4.14781334e-06,
          -5.38149607e-06, 8.38905999e-06, 4.84547127e-06,
          6.08191669e-07, 1.14487769e-07, 3.31993064e-08,
          -6.28682358e-07, 1.43694178e-05, -4.48460611e-07,
          -6.08921573e-06, -2.79586384e-05, -7.00592682e-06,
          7.01093131e-06, 2.26854227e-05, 2.91318811e-05, 5.15311876e-05,
          1.55317721e-05, 6.54459427e-07, -2.19255326e-05,
          -7.02555008e-06, 5.00239003e-06, 1.58149942e-06,
          9.40068094e-06, -2.66297718e-07, -4.50004876e-07,
          -1.29071134e-06, -4.66351594e-06, 1.00277393e-05,
          4.17999490e-06, -6.58113458e-06, -7.07501977e-06,
          4.60590581e-06, -2.14493957e-06, -5.22108894e-06,
          -1.48274521e-05, 2.27443070e-06, 4.69838460e-06,
          -7.33690331e-06, -6.45644423e-06, 9.18706428e-06,
          -1.92489751e-05, -2.54184561e-05, -2.98317900e-05,
          5.27586280e-06, 1.73764408e-06, 1.75774530e-05, 3.44852087e-05,
          -9.20597722e-06, -2.57017400e-05, -7.94779589e-06,
          -2.81886496e-05, 1.19036604e-05, 2.75550406e-06,
          1.61887128e-05, 2.87269140e-05 ]
      - [ -4.95469203e-06, -6.59502530e-06, 3.58214947e-06,
          9.88931606e-06, 1.11425595e-06, 4.55824818e-08,
          -1.66866172e-07, -8.31506810e-08, -1.13887907e-07,
          -5.06839967e-07, -1.74902038e-06, 1.75143839e-06,
          -4.29767880e-07, -1.47776109e-06, 4.99292447e-08,
          7.30041094e-08, -1.32228899e-06, -1.15679504e-05,
          -1.06483876e-05, 9.46634827e-06, 3.46296815e-06,
          -1.73497142e-06, -3.36003950e-07, -2.73550177e-06,
          -1.09002713e-05, -1.03269767e-05, -4.36614528e-06,
          5.26388021e-06, 3.10404175e-06, 6.82790755e-07, 1.07685992e-07,
          1.29730361e-05, 2.91331867e-06, 3.44933119e-06, 5.90426816e-06,
          1.13324568e-05, 1.35686946e-08, -3.94362723e-06,
          -6.09463177e-06, -2.81004850e-06, 9.68808581e-06,
          3.46261641e-06, -7.92953756e-07, -2.07060702e-06,
          -3.62254855e-06, -2.23112329e-06, -9.59475869e-07,
          6.68139251e-07, 9.87255589e-06, -1.95081338e-05,
          -6.81053825e-06, -1.43691095e-05, -1.50712349e-05,
          6.56000111e-07, -2.46887907e-07, 2.40824775e-05,
          4.17174597e-05, -3.43315769e-05, -1.59548126e-05,
          1.59055003e-06, -1.21566172e-05, 6.68256064e-07,
          -6.25812390e-07, 3.65356846e-06 ]
      - [ -6.77458786e-07, -7.49927858e-06, 3.97082658e-06,
          6.27813142e-06, -1.12940302e-06, 2.60658641e-08,
          -1.83185691e-07, -2.20830472e-07, -7.26646974e-08,
          -1.94503650e-06, -8.00718772e-06, -2.69746153e-07,
          -3.43556917e-06, -5.14518376e-07, -1.87043440e-07,
          -2.62276171e-06, 2.78082225e-05, -1.56403883e-06,
          -4.66888605e-06, -1.97424288e-06, -1.07516071e-05,
          -6.31433068e-06, 2.52903988e-07, 4.30534897e-07,
          1.05521747e-06, -1.71866191e-07, -2.95930249e-07,
          5.38655240e-06, -6.24967242e-06, -1.52396251e-06,
          -2.39092856e-06, 2.30270562e-05, 4.63594552e-06,
          2.89875152e-06, 6.08431219e-06, 8.84749716e-06,
          -5.36537618e-06, -9.22332674e-06, -4.95111180e-06,
          -1.09414968e-05, 9.98314681e-06, 2.91732135e-06,
          1.11823340e-06, -5.16870273e-07, -1.15112616e-05,
          -5.38861559e-06, -2.68313352e-06, -2.71242925e-06,
          2.73659061e-05, -1.64630037e-05, -2.18539808e-05,
          -1.96221190e-05, -2.18091122e-06, -9.55271480e-06,
          -1.14503873e-05, 2.21808150e-05, 3.69066729e-05,
          -2.77764339e-05, -1.29207538e-05, -4.58507247e-06,
          -3.10701267e-07, -5.98020051e-06, -6.10678717e-06,
          2.72258922e-06 ]
      - [ -2.54846927e-05, -7.59290424e-06, 9.62498325e-06,
          3.22751839e-05, 8.64245806e-07, -6.44455952e-07,
          -3.86882526e-08, 2.18296222e-07, -4.37815011e-08,
          7.90535140e-08, 3.80892089e-07, 5.74384376e-06, 3.19430023e-06,
          3.09795200e-06, 2.21285177e-06, 1.22967194e-07, 1.03457760e-05,
          -5.19743517e-05, -3.11451072e-06, 5.60137596e-06,
          -3.17967033e-06, -4.34904223e-06, -2.08834626e-06,
          -1.75596756e-06, -3.32096024e-05, -3.42224994e-05,
          -3.61542379e-06, 6.15350416e-07, 1.20615596e-06,
          3.45095782e-06, 2.30142814e-06, 3.51260751e-05, 3.03719685e-06,
          -1.03914035e-05, 1.01130845e-05, 3.51751150e-05,
          8.11199152e-06, 7.48109642e-06, -1.92505695e-06,
          -2.72200600e-06, 7.22612367e-06, 2.55452824e-06,
          1.07413746e-06, 4.64190271e-06, 2.33353467e-06, 1.06754726e-06,
          6.56821794e-06, 1.11507406e-05, 2.66317875e-05,
          -8.68046845e-06, -1.05713807e-05, -1.39404729e-05,
          -2.28695044e-05, -1.66026693e-05, -1.40045186e-05,
          2.21712453e-05, 4.10536049e-05, -3.88500775e-05,
          -1.32555460e-05, 5.50899631e-06, 2.04593034e-05,
          -1.03342600e-05, -9.21274568e-06, -1.24925900e-05 ]
      - [ -3.40490951e-05, -2.37318318e-06, 4.52315180e-06,
          2.18472287e-05, -3.63937920e-06, 1.10965708e-07,
          6.06192074e-08, 3.27672041e-08, -4.99748194e-06,
          -9.83206746e-07, -1.02663455e-06, 1.03788284e-06,
          2.33345804e-06, 8.06629771e-07, 1.02683566e-06,
          -1.32827199e-06, 2.33278315e-05, 1.92590824e-06,
          -3.37011073e-07, 4.96250641e-06, -5.47151922e-06,
          -5.53068276e-06, -1.91303525e-06, -2.69316820e-06,
          -6.26649080e-06, -1.26813541e-06, -3.35882646e-06,
          1.30461185e-05, -3.15489092e-06, -5.99868326e-06,
          -5.10712334e-06, 1.61164778e-07, 1.75309742e-06,
          1.73265664e-06, 1.07145779e-05, 3.25045517e-06,
          -8.25101142e-06, 2.42860415e-06, 9.83756877e-07,
          1.63048901e-06, -6.65770722e-06, -7.41832707e-07,
          -3.30547573e-06, -2.48504548e-05, -1.96788969e-05,
          9.53840754e-07, 1.45594163e-06, 8.85159636e-07, 1.86140023e-05,
          -1.19950000e-05, -1.16708961e-05, -2.01430703e-05,
          -2.23349089e-05, -1.09652292e-05, -9.70278234e-06,
          2.23890693e-05, 2.88831470e-05, -1.58858056e-05,
          -1.28560032e-05, -1.25480046e-05, -1.08096283e-05,
          -8.48958007e-06, -6.13420116e-06, 3.52098141e-07 ]
      - [ 1.22194109e-07, -2.92137088e-06, 3.35219340e-07,
          1.60653872e-05, 1.46858815e-06, -4.15340695e-09,
          -3.27261205e-07, -3.56855708e-07, -3.24236311e-07,
          -2.48916734e-07, 5.17769649e-08, 2.07077392e-06,
          1.93263418e-06, 8.97900406e-07, 3.49349250e-07, 7.25282376e-08,
          1.65077779e-06, -9.39609617e-06, -3.66993800e-06,
          6.14886130e-06, 4.46722606e-06, -4.19580329e-06,
          -7.29686553e-06, -9.90585522e-06, -2.00358154e-05,
          -1.59861229e-05, -5.80776077e-06, 1.37322131e-05,
          1.56877468e-05, -8.13601218e-06, -8.85270674e-06,
          3.01012756e-06, 1.66058328e-06, 2.02084266e-06,
          -1.84893440e-06, -9.31672821e-06, -4.21821233e-06,
          1.06447328e-06, 4.02305886e-06, 6.88320583e-08, 5.20500498e-06,
          -9.34715786e-07, -6.48198829e-06, -2.52488499e-05,
          -6.75024876e-06, 4.24697106e-07, 1.17116736e-06,
          1.96495967e-06, 1.49608122e-05, -9.07236063e-06,
          -1.00133384e-05, -1.94923286e-05, -2.23078514e-05,
          -1.08572358e-05, -7.30882084e-06, 2.24027499e-05,
          2.55350387e-05, -1.61526732e-05, -1.29942655e-05,
          -1.52116600e-05, -5.77237279e-06, -3.84992063e-06,
          -4.23544907e-06, -3.92352604e-06 ]
      - [ -1.45317154e-06, -1.30163573e-06, 8.59968532e-06,
          3.36360335e-06, -1.45458607e-05, 5.27514828e-07,
          1.11095787e-07, -1.89550633e-07, -9.13659122e-08,
          3.53530609e-08, 2.02363722e-07, 2.90906723e-06,
          -1.88282993e-05, -8.35929995e-07, 2.90757072e-07,
          -1.80622339e-06, 1.27357071e-05, 1.97607687e-06,
          7.92104686e-07, 5.54643248e-06, 2.23731558e-06,
          -1.57219890e-08, 1.21730238e-06, 1.15055332e-06,
          2.30492856e-06, 1.27960561e-07, -5.04565634e-08,
          5.48221988e-06, 7.04437207e-06, 3.37067786e-06, 2.71962472e-06,
          1.17172895e-05, 3.04850073e-06, 1.47054573e-06, 3.88697754e-06,
          5.14435669e-06, -3.33716234e-05, 2.00559202e-06,
          3.20847562e-06, -3.09920529e-06, 8.83695611e-06,
          -1.05101799e-05, 9.60088187e-08, 8.25739448e-07,
          -2.78530351e-05, -1.38714984e-06, 2.56532917e-06,
          1.72166608e-06, 2.05726519e-05, -4.56424968e-05,
          1.97818366e-07, 1.18480068e-06, 2.13516068e-06, 2.30103251e-06,
          8.03852174e-07, 2.45584033e-05, 2.10944072e-05,
          -4.03102604e-05, -5.91980324e-06, 1.33094170e-06,
          1.08197364e-05, 2.42939313e-06, -6.61480044e-08,
          1.73187909e-05 ]
      - [ 1.04354319e-06, -7.84777512e-06, 1.69254622e-06,
          5.83849624e-06, 1.24600422e-06, 3.04849266e-08, 5.55983455e-08,
          -1.76217760e-08, -1.44021097e-08, -2.48198739e-06,
          -1.51173026e-06, 1.52873963e-06, 6.69890937e-07,
          5.02440344e-07, 3.50245415e-07, 8.43103294e-07, 1.31041861e-05,
          -9.28883492e-06, -5.35119580e-06, 7.23972380e-06,
          -1.37956522e-06, -1.03862485e-05, -1.00058742e-05,
          -1.04173541e-05, -1.13568885e-05, -7.33931120e-06,
          -1.05359541e-05, 9.58501914e-06, 7.69062353e-06,
          -1.60862019e-05, -1.28953998e-05, 6.88208138e-06,
          2.44316220e-06, 2.88778756e-06, 5.90606578e-06, 5.67645884e-06,
          -9.43650593e-06, -6.72547867e-06, -6.57686769e-07,
          3.10985456e-06, 2.30184673e-06, 2.36928918e-06,
          -2.15745263e-06, -6.64460504e-06, -6.39375457e-06,
          -5.79442622e-06, -3.02414179e-07, 1.79842266e-06,
          1.47421561e-05, -1.00599327e-05, -1.33481153e-05,
          -1.07076803e-05, -1.18965963e-05, -2.07280245e-05,
          -7.48063940e-06, 2.16325443e-05, 2.22732997e-05,
          -1.59535193e-05, -1.61361731e-05, -1.02075528e-05,
          -4.42151531e-07, -1.87228361e-05, -6.90693605e-06,
          -4.99036730e-07 ]
      - [ -5.85221142e-06, -1.09944349e-05, -4.34049252e-06,
          8.17605724e-06, 8.32574756e-07, 7.74309257e-08, 1.10604418e-07,
          4.02508533e-08, -1.25932695e-06, -3.63609502e-06,
          -3.29765135e-06, 2.43470208e-06, 3.25725318e-06,
          1.81441226e-06, 8.83758901e-07, 5.57371095e-07, 1.65550464e-05,
          -1.82197262e-08, -1.15907130e-06, -1.71850172e-06,
          -2.53748294e-06, -3.96287078e-06, -4.39093628e-06,
          -1.32190899e-05, -1.31059051e-05, -3.09405482e-06,
          -1.82997013e-07, 7.44447470e-06, -7.51765447e-06,
          -8.30389490e-06, -8.94419372e-06, 1.96422093e-06,
          2.10800272e-06, 2.23543088e-06, 6.24325548e-06, 7.91504408e-06,
          -1.61198768e-05, -9.71115423e-06, -9.03388991e-06,
          3.00232432e-06, 1.54617719e-05, 1.22488336e-06, 3.19784270e-08,
          -1.10899800e-05, -1.02455551e-05, -2.87877651e-06,
          -4.44870494e-07, -9.74293812e-07, 1.40091279e-05,
          -1.10556675e-05, -1.72542696e-05, -2.92844761e-05,
          -6.00760188e-07, 2.35817424e-06, 2.01304374e-06,
          2.66199895e-05, 2.42554725e-05, -1.57054637e-05,
          -2.13529347e-05, -1.79729104e-05, 8.19001798e-06,
          3.62182305e-07, -1.60525917e-06, -6.28009047e-06 ]
      - [ -1.04349489e-07, -4.83275926e-06, -1.51728796e-06,
          9.23867617e-07, 4.86440376e-06, 5.88685111e-07, 4.53882734e-07,
          3.20292855e-07, 1.05178594e-06, -6.65115522e-06,
          3.96620999e-06, -6.78784863e-06, 1.56742306e-06,
          -3.06396282e-06, -5.05954904e-06, -1.32514069e-05,
          2.00007016e-05, 4.53784305e-05, 6.88908985e-05,
          -2.82964575e-05, -3.74878291e-05, -1.53924302e-05,
          -9.79556899e-06, 3.45294757e-06, 1.51965623e-05,
          2.57579268e-05, 3.16582518e-05, 3.69507070e-05,
          -1.28613474e-05, -2.10740345e-05, -1.35386426e-05,
          -6.27675490e-06, 2.80248884e-07, -1.13432286e-07,
          5.10635209e-06, -2.56093099e-05, -4.86538511e-06,
          3.88186663e-06, -4.90342745e-06, -1.11785448e-05,
          -1.80639126e-05, 3.01524256e-06, 7.07707432e-06,
          7.41986923e-06, -1.51055292e-05, -1.62322285e-05,
          -7.72224757e-06, -1.43533207e-05, -2.61675650e-05,
          3.23467029e-05, -1.86704019e-05, -9.14522661e-06,
          4.32400921e-05, -5.65221235e-05, -4.70679188e-05,
          -1.15162220e-05, -7.60293506e-06, 3.32843447e-05,
          3.26337649e-05, -5.38822542e-06, 4.91521087e-06,
          -4.76583591e-05, -3.98117736e-05, -2.56492294e-05 ]
      - [ -1.32520800e-05, -1.83199097e-06, 1.18761845e-05,
          1.89234634e-05, 4.42679584e-06, 1.87945659e-06, 3.37735901e-06,
          2.52849054e-06, 1.25060615e-06, 2.65201379e-06, 6.31833154e-06,
          5.65749815e-06, 8.86203452e-06, 2.63905304e-06, 1.02360036e-06,
          -1.06929485e-06, -1.36290089e-06, -3.82305734e-05,
          8.53104120e-06, -8.11952577e-06, -5.76625871e-06,
          -1.82317774e-06, -2.47325079e-06, 3.42281373e-06,
          -8.01787519e-06, -1.08581644e-05, 1.16810024e-05,
          -1.52320754e-05, -7.43389637e-06, 2.99625754e-06,
          -1.79690130e-06, 1.86814486e-05, -4.53543425e-09,
          -3.77791730e-05, -5.04157970e-06, 6.03724129e-06,
          1.49862108e-05, 1.93968863e-05, 1.00983634e-05,
          -5.00462556e-06, -1.69535906e-05, -5.05598746e-06,
          1.78058019e-06, 1.00245970e-05, 1.32645382e-05, 7.83438463e-06,
          9.34715081e-06, 6.63306992e-06, -2.41014659e-05,
          1.86892303e-05, 4.86954332e-06, -4.76259493e-06,
          8.72497185e-06, -1.17074542e-05, -2.71563658e-06,
          -2.19819976e-05, -6.05016248e-05, 2.74513295e-05,
          2.28804583e-05, -2.69449993e-05, 7.87005411e-06,
          -5.00551505e-06, -1.13334972e-05, -3.22767228e-05 ]
      - [ -2.71706540e-05, 6.46200579e-06, 9.49832429e-06,
          9.20507864e-06, 1.36383812e-06, -3.52795837e-08,
          -3.50946920e-07, -7.74250339e-07, -4.93210337e-06,
          -6.34055482e-07, 2.92698655e-06, 7.95945652e-06,
          2.04649823e-05, 4.76396781e-06, 2.80180461e-06,
          -3.13004057e-06, -5.08759285e-06, 3.14365316e-05,
          1.89034963e-05, -1.41322926e-05, -1.69629930e-05,
          -6.88745013e-06, -3.45974581e-06, -5.65458151e-07,
          -9.74957584e-06, 1.72006658e-05, 9.95080700e-06,
          -5.42904490e-06, -9.54014104e-06, -9.42029965e-06,
          -3.34677134e-06, 7.22383584e-06, -1.91616573e-06,
          -1.13891349e-06, -1.09204802e-06, -3.43942629e-05,
          -5.14106546e-07, 1.73314438e-05, 1.62845281e-05,
          1.17138834e-05, -2.72970988e-06, -6.07132642e-06,
          -5.12861789e-06, -4.26136976e-05, -5.95208348e-06,
          1.09368802e-05, 5.63571029e-06, -6.91225978e-07,
          -8.52719404e-06, 2.32343918e-05, 1.78416831e-05,
          -1.85459692e-06, -8.19030902e-06, -1.70434178e-05,
          -1.13010055e-05, 2.31081285e-05, -3.19636229e-06,
          4.31065018e-05, 3.11352633e-05, -4.51452479e-06,
          4.83520489e-06, -8.27456915e-06, -5.66216431e-06,
          -6.47752722e-06 ]
      - [ 1.04079500e-05, 1.21109242e-05, 1.60464333e-06, 1.55355829e-05,
          2.86406134e-06, -1.48552729e-07, -6.78803474e-07,
          -8.29944895e-07, -4.19736011e-07, 1.23455152e-06,
          4.34036883e-06, 4.85264536e-06, 1.63175446e-05, 6.03695662e-06,
          2.40719396e-06, 2.64038022e-06, 1.38793539e-05, 8.56632323e-06,
          3.67922280e-06, -1.06587549e-05, -1.96336188e-07,
          -6.71697444e-06, -2.08552792e-05, -2.78760999e-05,
          -2.57107204e-05, -1.31924944e-05, -5.39148323e-06,
          1.46003367e-05, 2.71417957e-05, -1.87617698e-05,
          -2.31824924e-05, -1.75314526e-05, -1.96172678e-08,
          -2.30346200e-06, -2.01759176e-05, -4.42450473e-05,
          5.53968312e-06, 1.64133944e-05, 2.23164025e-05, 5.05091258e-08,
          1.82785504e-06, -3.50608570e-06, -1.49441912e-05,
          -2.88431838e-05, 9.79368360e-06, 6.73918021e-06,
          4.98139480e-06, 4.67780609e-07, -8.35016522e-07,
          2.00542181e-05, 1.31489742e-05, 2.80677682e-07,
          -1.05484251e-05, -3.23962886e-05, -1.17148820e-05,
          1.95551529e-05, -1.84682394e-05, 2.82123510e-05,
          2.26674892e-05, -2.31346676e-05, 1.91522558e-05,
          -9.16303634e-06, -8.93602009e-06, -1.21967742e-05 ]
      - [ 3.14745284e-06, 3.93679738e-06, 6.60570640e-06,
          -1.57003487e-05, -1.84434175e-05, 1.46654270e-06,
          1.97383383e-06, 1.38270150e-06, 2.15964997e-06, 4.18053787e-06,
          7.14386670e-06, -1.09256971e-05, -1.31083088e-05,
          -2.68151962e-06, -2.87724288e-06, -4.47047387e-06,
          -4.89740387e-06, 2.06713921e-05, 2.07681314e-05,
          1.75569448e-06, 6.26187420e-06, 2.80079803e-06, 3.61851335e-07,
          3.57344970e-06, 2.61119249e-06, 8.91770378e-06, 6.94236223e-06,
          1.05152003e-05, 1.48880108e-05, 5.34740184e-06, 3.30861826e-06,
          -4.14973556e-06, -7.88613761e-07, -2.03571312e-06,
          2.70235500e-06, -3.90049754e-05, -1.55444777e-05,
          1.30655480e-05, 1.08362183e-05, 1.53056008e-05, 4.94774167e-06,
          -1.36407116e-05, 1.24107873e-06, -1.29565351e-05,
          -9.29710495e-06, 9.60838406e-06, 9.87540625e-06,
          3.86815145e-06, -3.06416769e-05, -1.82730910e-05,
          1.39752683e-05, 2.71992558e-05, 3.49119837e-05, 5.28451619e-06,
          5.14410840e-06, 3.51585868e-06, -1.67701512e-06,
          -5.36446976e-07, 2.06099248e-05, 8.20973946e-06,
          3.06753318e-05, 1.50433220e-06, -2.31874219e-06,
          -3.44669047e-06 ]
      - [ -1.34612856e-06, -1.34999564e-05, -9.27296333e-06,
          -2.49602522e-06, 4.57676879e-06, 1.55182363e-06,
          1.93486335e-06, 1.77379491e-06, -2.47823300e-06,
          -1.42546526e-06, -1.87108481e-06, 1.11986640e-06,
          5.76157936e-06, 2.63929451e-06, 2.09760128e-06, 3.32014247e-06,
          1.47489991e-05, 1.87262940e-05, 2.38941584e-06, 1.89339084e-06,
          -1.20350569e-05, -2.39535693e-05, -3.00259690e-05,
          -2.89671116e-05, -1.79757008e-05, 1.54187916e-08,
          -4.11871588e-06, 9.17887155e-06, 1.15072735e-05,
          -4.48194260e-05, -3.99699966e-05, -1.93719297e-05,
          -4.21769322e-08, -2.40779041e-08, 2.11493884e-07,
          -6.88181763e-06, -8.99427596e-06, -1.24954374e-06,
          -3.83739643e-06, 3.44673913e-06, -3.85355679e-06,
          -1.00755005e-06, -1.74792171e-06, -1.35478795e-05,
          -7.36255606e-06, -3.64282846e-06, 1.17597017e-06,
          3.31436013e-07, 1.09449695e-06, 7.90384911e-06,
          -1.94906033e-06, 3.49354923e-06, 7.08991047e-06,
          -3.45464832e-05, -2.43402374e-05, 3.82443432e-06,
          -2.63888469e-05, 1.26677432e-05, 1.21568237e-05,
          -4.25812959e-06, 1.21278454e-05, -4.01768921e-05,
          -1.19269953e-05, -1.78326500e-05 ]
      - [ -2.28501221e-06, -2.24888608e-05, -1.42635181e-05,
          8.30022600e-06, 9.80265577e-06, 2.48271277e-07, 5.18037837e-07,
          1.61766508e-07, -5.21747836e-07, -1.32012183e-05,
          2.54457336e-06, 1.98492671e-05, 1.04774936e-05, 6.72800979e-06,
          2.61943251e-06, 1.14695913e-05, 6.01603688e-06, 5.53127211e-05,
          5.30709549e-05, -3.47615533e-05, -1.80133902e-05,
          -1.73486478e-05, -2.78434891e-05, -4.48942010e-05,
          -2.62144858e-05, 1.17373093e-05, 1.45179756e-05,
          6.90718070e-06, 3.16196946e-07, -3.72138784e-05,
          -4.06632462e-05, -2.97616534e-05, 1.63895402e-06,
          -1.90060666e-06, -3.33900016e-06, -3.53566757e-05,
          -1.42373538e-05, -6.38529127e-06, 3.26776842e-07,
          2.99537965e-06, 2.09424470e-05, -5.53669793e-07,
          -7.57890803e-06, -3.93579539e-05, 4.02826299e-06,
          4.07770858e-06, 1.39393831e-06, -9.28932968e-06,
          -1.76744288e-05, -1.45586146e-05, -1.62762626e-05,
          1.06453235e-05, 3.00353786e-05, -3.17998615e-06,
          -3.35534924e-06, 1.94530985e-05, -1.93820688e-05,
          1.73518401e-05, 9.83926293e-06, -1.22317724e-05,
          3.87090477e-05, -5.69624535e-06, -7.50459913e-06,
          -1.75240020e-05 ]
      - [ -7.80824666e-06, 1.08601935e-05, 1.14004151e-05,
          1.21870162e-05, 1.34849381e-06, 1.95511760e-07, 5.51217340e-07,
          5.75694742e-07, 2.55050480e-07, 3.88752960e-06, 1.66562641e-05,
          1.06738225e-05, 5.69691792e-06, 2.50824496e-06, 7.00904650e-07,
          4.76893001e-06, -2.46639829e-05, -4.53532048e-05,
          1.89870082e-06, -1.35608457e-06, 1.34985385e-05,
          1.00303805e-05, -1.31001377e-06, -1.27176463e-06,
          -1.51766590e-05, -2.96947164e-05, -3.59147816e-06,
          -6.39295058e-06, -8.35519700e-07, 7.60128978e-06,
          8.12470262e-06, 1.16796064e-05, 1.58475234e-06,
          -2.53287453e-05, -1.19301139e-05, 1.57314680e-05,
          1.48896170e-05, 1.85975186e-05, 9.49481364e-06, 1.31706838e-05,
          -1.18067910e-05, -8.04315562e-07, -1.62307188e-07,
          7.62355967e-06, 2.04138250e-05, 1.43100924e-05, 9.82801794e-06,
          1.16431092e-05, -2.82660258e-05, 1.24018834e-05,
          3.17796803e-05, 9.84128383e-06, -1.02892509e-05,
          1.05968902e-05, 3.88123090e-06, -1.75877831e-05,
          -3.38545033e-05, 2.08748697e-05, 1.35858472e-05,
          -1.25446986e-05, -6.23480855e-06, 1.01759306e-05,
          7.43199826e-06, -2.29511297e-05 ]
      - [ -3.47358873e-05, 1.16296696e-05, 1.59907486e-05,
          5.78158870e-06, -2.67265909e-06, 4.41360243e-07,
          1.37432636e-07, -3.15598641e-07, -1.65153608e-06,
          2.43952263e-06, 1.28889869e-05, 9.11454299e-06, 1.47200717e-05,
          3.48856270e-06, 2.07740186e-06, 1.59738568e-06,
          -4.57146962e-05, 4.80584231e-06, 6.83668168e-06,
          1.03878701e-05, -4.85097735e-06, -8.55671988e-06,
          -2.45294541e-06, -3.70115276e-06, -1.76940630e-05,
          -1.31567572e-06, -2.38349821e-06, -5.72644512e-06,
          -7.21058223e-06, -5.45270359e-06, 2.39473070e-06,
          -3.63477125e-06, -2.65246058e-06, -1.51782490e-06,
          -9.73513238e-07, -3.02399585e-05, -3.21990751e-06,
          1.88162830e-05, 1.87106434e-05, 1.39302219e-05,
          -3.56940018e-06, -7.51236075e-06, -4.13985754e-06,
          -4.84440170e-05, 4.21395953e-06, 2.45899319e-05,
          1.05560357e-05, 4.50437437e-06, 6.40262670e-06, 1.22896463e-05,
          3.22639135e-05, 1.86522982e-06, -2.62088161e-05,
          -4.64127048e-08, 9.64098217e-06, 1.93816013e-05,
          -7.94386233e-06, 3.78909572e-05, 1.51878603e-05,
          2.14761667e-06, -1.07012092e-05, 9.70609744e-06,
          2.97710221e-06, 2.93259882e-06 ]
      - [ 5.79504149e-06, 5.88895682e-06, 4.75355137e-07, 1.11678492e-05,
          2.83231998e-06, 3.64118122e-08, -2.85898352e-07,
          -6.02874536e-07, 6.23778703e-07, 4.69736960e-06,
          7.98614565e-06, 5.92805827e-06, 6.78047309e-06, 1.22056338e-06,
          1.67749101e-06, 7.05679076e-06, -2.97776551e-05,
          -1.95919893e-05, -3.71145825e-06, 1.67978419e-06,
          1.28417514e-05, 1.01908665e-06, -9.01837393e-06,
          -1.86440593e-05, -3.30774201e-05, -2.83516420e-05,
          -9.85688985e-06, 5.48744265e-06, 1.77348065e-05,
          -6.25144457e-06, -9.54443840e-06, -2.50664580e-05,
          3.36302293e-07, -2.72577097e-07, -1.02430995e-05,
          -1.42733070e-05, 9.09703249e-06, 1.32693003e-05,
          1.41229184e-05, 4.49327354e-06, 4.00201861e-06,
          -1.69523253e-06, -8.29372402e-06, -2.29382804e-05,
          9.44626572e-06, 1.40004313e-05, 8.68671123e-06, 5.93202913e-06,
          1.52498424e-05, 1.26332779e-05, 2.33878800e-05, 6.03168883e-06,
          -1.59670271e-05, -2.69834891e-06, 1.14229342e-05,
          9.88512966e-06, -3.05728349e-06, 2.35424068e-05,
          6.90544448e-06, -6.24153199e-06, 6.22915150e-06,
          9.48254547e-06, 6.95579365e-06, 5.87459544e-06 ]
      - [ -1.65870335e-06, 7.48453704e-06, 6.32567389e-06,
          -5.12045881e-06, -1.70281110e-05, 1.72847621e-07,
          1.43598200e-07, -1.57000628e-07, 7.70614790e-08,
          3.07029450e-06, 1.04829005e-05, -9.45681677e-06,
          -6.48062814e-06, -4.85106511e-07, -4.86522595e-07,
          -3.23814425e-06, -3.83282122e-06, 4.98184318e-06,
          7.64057222e-06, 1.15946605e-05, 1.78840110e-05, 7.81137715e-06,
          7.23081712e-07, 1.47998136e-07, -7.60785070e-08,
          6.26281178e-07, 7.33655725e-07, 3.30055536e-06, 2.28876852e-05,
          8.69741871e-06, 8.68073494e-06, -2.28969770e-06,
          -8.73927888e-07, -7.04185481e-07, -4.67601602e-08,
          -2.85442184e-05, -1.50636442e-05, 1.44701844e-05,
          9.31658724e-06, 1.32741588e-05, 6.74765397e-06,
          -1.45737049e-05, -2.13463795e-06, -5.16003229e-06,
          -1.05229319e-05, 6.18062813e-06, 5.56329587e-06,
          6.63192668e-06, -3.25817091e-05, -3.24921311e-05,
          2.75140701e-05, 2.63375860e-05, 8.17168529e-06, 1.62923243e-05,
          1.60256659e-05, 1.02982358e-05, -8.90489173e-06,
          -1.45641170e-05, 1.53137880e-05, 1.18013413e-05,
          1.45852873e-05, 1.09896855e-05, 9.83740210e-06, 2.72686793e-06 ]
      - [ 3.25111927e-07, -2.72164471e-06, 1.32170426e-05,
          -8.34894672e-06, -1.70175525e-07, 6.73067632e-07,
          1.09826409e-07, 7.77718299e-07, 3.82213017e-08, 6.35350671e-06,
          1.07262476e-05, 7.56378222e-06, -1.37990139e-06,
          9.55463634e-07, 1.03288835e-06, 1.05218705e-05,
          -1.47586388e-05, -1.73135268e-05, -2.36448959e-05,
          1.92079788e-05, 4.37190147e-06, -2.45490755e-05,
          -1.52044313e-05, -4.84576049e-05, -4.60298434e-05,
          -2.06170826e-05, -2.93044741e-05, -8.25021743e-07,
          2.92554014e-05, -3.59785736e-05, -2.55390296e-05,
          -2.79572796e-05, -3.67186288e-07, 3.42272216e-07,
          1.27756005e-06, 1.51792219e-05, -1.42878380e-05,
          1.56599726e-05, 9.38620451e-06, 1.33185322e-05,
          -7.65893674e-06, 1.62329945e-06, 1.52163216e-06,
          -1.30489007e-05, -7.10406584e-06, 1.65334186e-05,
          1.60445506e-05, 4.25070539e-06, 4.21990590e-05, 3.23230051e-06,
          2.68116273e-05, 3.14772951e-05, -3.24079265e-05,
          -2.90729004e-05, 1.10389910e-05, -5.48682237e-06,
          -2.49221102e-05, 3.39720100e-05, 3.27667294e-06,
          1.05251247e-05, 7.87033878e-06, -3.34615215e-05,
          1.64190042e-05, 1.03500515e-05 ]
      - [ -9.75659714e-06, -8.82856148e-06, 1.52369530e-05,
          9.51312813e-07, 4.79673008e-06, 3.27794083e-07, 3.45714000e-07,
          6.69381961e-07, -1.32398441e-06, -9.89345153e-06,
          6.98907570e-06, 2.52877435e-05, 1.29869868e-05, 5.40248811e-06,
          3.81950804e-06, 1.56333008e-05, -2.45731335e-05,
          9.22620711e-06, 1.81609994e-05, -3.04088135e-05,
          7.25603832e-06, 8.27998974e-06, 9.40842710e-07,
          -4.51956876e-05, -5.49632969e-05, 3.36372659e-06,
          9.31705870e-07, -4.24118116e-05, 2.28148219e-05,
          -3.05394474e-06, -9.40829887e-06, -1.89606726e-05,
          -3.71807801e-07, -2.29142415e-06, -1.71965223e-06,
          -8.98831695e-06, -7.54069424e-06, 2.13997100e-06,
          5.62752848e-06, 1.02556205e-05, 1.77959628e-05,
          -3.89554498e-06, -7.00318560e-06, -3.76184544e-05,
          1.44726773e-05, 1.10200808e-05, 6.77716162e-06, 1.16031936e-06,
          -8.11873542e-06, -4.47956918e-05, 4.41833117e-06,
          1.87825153e-05, -9.85028419e-06, 4.81534298e-05,
          4.95424865e-05, 2.45874398e-05, -3.08681520e-05,
          3.18640446e-06, -2.88367810e-05, -2.05402157e-05,
          4.06764811e-05, 5.55460720e-05, 3.20678810e-05, 1.85297199e-06 ]
      - [ -2.38654266e-05, 5.59065438e-06, 3.23598442e-06,
          1.51578456e-06, -3.07394407e-06, 7.89051001e-07,
          5.86742388e-09, 8.01632183e-08, -5.64433321e-06,
          -1.59921626e-06, -1.16027434e-06, -1.27943269e-06,
          3.10917386e-07, 1.91716140e-07, 5.50014745e-09,
          -1.18821674e-06, 1.13625156e-05, 4.26588049e-05,
          -3.49013447e-07, -5.93654431e-06, -7.33631668e-06,
          -3.99229248e-06, -3.50438540e-06, -5.43895908e-07,
          2.07146804e-05, 1.99364531e-05, 1.40457212e-06, 1.08334280e-05,
          -1.10907613e-05, -1.22474612e-05, -5.76239609e-06,
          -1.63143995e-05, -2.11942006e-06, 1.35411765e-05,
          9.04097135e-07, -2.58376203e-05, -1.64560861e-05,
          -7.95344079e-07, 3.45536250e-06, 1.34486945e-05,
          -7.17071498e-06, -4.01588068e-06, -6.33557329e-06,
          -4.77317881e-05, -2.08929814e-05, 6.76390925e-07,
          -1.99019041e-07, -3.28224871e-07, 2.49885488e-05,
          6.70068721e-06, -3.80527467e-06, -1.65892961e-05,
          -1.02526792e-05, -1.10308542e-06, -6.16895750e-06,
          2.09075351e-05, 1.86245034e-05, 1.12090793e-05,
          -5.07380537e-06, -1.22452311e-05, -2.48632496e-05,
          -2.53670328e-06, -3.13519263e-06, -3.55419229e-06 ]
      - [ 1.41569999e-05, 4.39360383e-06, -8.76137256e-06,
          2.41948578e-06, 7.18991657e-07, 4.01399461e-07,
          -5.96064410e-07, -5.92951722e-07, -4.08071855e-07,
          -4.16741329e-07, -4.64015557e-07, -5.59929504e-07,
          -3.30252334e-07, -3.77975908e-07, -2.41619745e-07,
          1.30338083e-06, -2.25123972e-06, 1.58646308e-05,
          -6.83691360e-06, -1.31964839e-06, 5.40421843e-06,
          -6.44833108e-06, -1.32678906e-05, -1.32398754e-05,
          -1.47308183e-05, -1.52301700e-05, -9.70585461e-06,
          1.70970925e-05, 1.62802407e-05, -1.56335846e-05,
          -1.49829202e-05, -3.38724021e-05, 2.31620703e-07,
          1.70253534e-05, -6.88192677e-06, -3.08847666e-05,
          -1.20266959e-05, -9.06487912e-07, 3.59664386e-06,
          5.59495447e-06, 5.75129752e-06, -1.44479668e-06,
          -9.32232342e-06, -3.01646214e-05, -1.35957043e-05,
          -2.47205747e-07, 1.45360389e-07, 4.46035074e-07,
          2.68099211e-05, 7.85693464e-06, -5.59281625e-06,
          -1.27135572e-05, -9.81591256e-06, -7.17280682e-06,
          2.06876780e-06, 1.08435843e-05, 2.75617749e-05, 6.69989140e-06,
          -1.28093898e-05, -1.29489563e-05, -4.28595877e-06,
          -3.03797343e-08, -6.70179290e-08, 1.15679859e-05 ]
      - [ 4.24564314e-06, 1.14159593e-06, -6.99810926e-07,
          -1.17122363e-05, -1.04977908e-05, 2.49958049e-07,
          -9.09216880e-08, -2.99192976e-07, -2.33038435e-07,
          4.70144421e-08, -4.37824497e-08, -9.95013306e-06,
          -1.01336191e-05, -2.01188982e-06, -1.59233900e-06,
          -5.31111118e-06, 1.43705001e-05, 2.14450938e-05,
          4.53639950e-06, 9.75442072e-06, 7.88809757e-06, 1.14833563e-06,
          4.99142175e-07, 8.16071463e-07, 1.05464542e-05, 1.36244325e-05,
          2.16160583e-06, 8.84582914e-06, 1.97737754e-05, 2.50762309e-06,
          2.39872134e-06, -7.90157264e-06, -1.71417935e-06,
          9.03406362e-06, 4.65136372e-06, -2.73972291e-05,
          -2.36794513e-05, -6.53182667e-07, 2.35458245e-07,
          2.98932059e-06, 9.72547150e-06, -9.51389757e-06,
          -1.15262765e-06, -7.93562504e-06, -2.01156963e-05,
          -1.41899420e-06, -1.18925504e-06, -6.97318114e-07,
          -1.06317766e-05, -2.94865858e-05, 3.69631243e-06,
          7.12383780e-06, 1.39710819e-05, 8.61772241e-06, 8.05070431e-06,
          6.82711789e-06, 5.63030835e-06, -1.76822450e-05,
          2.39863289e-06, 1.13839151e-05, 1.03712782e-05, 3.80703091e-06,
          2.96463622e-06, 7.22764162e-06 ]
      - [ 1.36879189e-05, -9.03654472e-06, -6.33917580e-06,
          -6.94104665e-06, 1.05553102e-06, 4.54732486e-07,
          4.20384474e-08, -3.83198504e-08, -7.42766360e-07,
          -4.08428377e-06, -2.66245320e-06, -6.90435456e-07,
          -3.36863820e-07, -1.90982647e-07, -2.91069028e-07,
          1.54134136e-06, 9.47683566e-06, 2.28377048e-05,
          -6.54455289e-06, 6.79709274e-06, -2.47242474e-06,
          -1.25129263e-05, -1.45773147e-05, -1.61013577e-05,
          -2.17093861e-06, 3.02179319e-06, -1.35735481e-05,
          1.65047859e-05, 1.21348385e-05, -2.68001386e-05,
          -2.38293960e-05, -2.66995467e-05, 5.04009172e-08,
          1.53532055e-05, 2.71467093e-06, -1.10464825e-05,
          -1.96194796e-05, -1.38726618e-05, -3.32487070e-06,
          1.04682658e-05, 3.48661433e-06, 2.15193808e-07,
          -4.64960794e-06, -1.37922607e-05, -1.20254081e-05,
          -9.66284006e-06, -3.01427008e-06, -6.20018454e-07,
          1.95729572e-05, 1.79218625e-06, -1.40233078e-05,
          -6.14550618e-06, -1.25965619e-06, -2.23771240e-05,
          -5.77069159e-06, 9.60696707e-06, 1.98257021e-05,
          8.63356320e-07, -1.43311672e-05, -1.28591118e-05,
          -2.00530894e-06, -2.43720770e-05, -4.70685291e-06,
          4.64373034e-06 ]
      - [ 5.56089071e-06, -8.13047882e-06, -9.77334275e-06,
          -1.02076137e-05, 2.44614597e-07, 3.38692445e-07,
          5.20257153e-08, 5.35885043e-08, -1.61633022e-06,
          -5.97350117e-06, -6.91709738e-06, -4.79015227e-07,
          5.12091958e-07, 3.38421955e-07, 1.06291800e-07, 8.02298246e-07,
          1.07316346e-05, 3.26740155e-05, 2.87690136e-06,
          -8.02839531e-06, -2.18637638e-06, -4.63760807e-06,
          -6.58318322e-06, -1.48815407e-05, -5.44418640e-07,
          1.49433090e-05, 1.96890619e-06, 1.09662430e-07, 6.03091109e-07,
          -1.19678907e-05, -1.23842146e-05, -1.84620076e-05,
          2.08964863e-08, 1.33348249e-05, 4.52120685e-06,
          -1.46283419e-05, -2.27907367e-05, -1.37102015e-05,
          -1.05911249e-05, 7.87652516e-06, 1.74180896e-05,
          8.96216591e-07, -1.49285268e-06, -1.76665453e-05,
          -1.35830269e-05, -6.72501119e-06, -4.23379606e-06,
          -4.21599589e-06, 1.38508340e-05, -1.18828193e-05,
          -2.07100566e-05, -2.07496068e-05, 7.96538825e-06,
          1.06008820e-05, 7.02113539e-06, 2.13157837e-05, 2.13169315e-05,
          -2.06536038e-06, -2.30274709e-05, -1.97434510e-05,
          7.48428283e-06, 6.33597665e-06, 2.62742196e-06, 3.20926779e-06 ]
      - [ 3.64863263e-05, -1.27293615e-05, -1.97317513e-05,
          1.12441430e-05, 1.76135982e-05, -7.67284831e-08,
          4.63886138e-08, -1.26859595e-06, -8.61930346e-07,
          3.76801154e-06, 5.76717048e-06, 4.47781031e-06,
          -1.58321356e-07, -4.20821209e-07, -3.13144710e-07,
          6.13397742e-06, -3.02960143e-05, -1.63858967e-05,
          -7.66201720e-06, 2.98232699e-05, 2.01275889e-05,
          -1.70769431e-06, -2.25783988e-05, -5.07501718e-05,
          -3.58763864e-05, -2.92527475e-05, -1.55716007e-05,
          3.38242571e-05, 3.13914643e-05, -1.71081483e-05,
          -4.66752635e-06, -6.46960834e-05, 3.78454700e-07,
          1.06988573e-07, -1.15472894e-05, 2.72287639e-06,
          1.92430962e-05, 2.97302421e-07, 3.32106652e-06,
          -1.89527873e-05, 4.30497994e-06, 1.37055224e-06,
          -1.00264560e-06, 4.23710626e-05, -7.83100859e-06,
          -4.27896993e-07, 1.52626370e-07, 1.44092633e-06,
          9.56815347e-06, -5.44300690e-07, -6.08949858e-06,
          2.76962396e-07, 1.47973415e-05, -2.51934216e-05,
          3.22620485e-06, 4.59675562e-07, -1.14747481e-05,
          6.59630678e-06, -1.45424201e-05, -3.17763843e-05,
          1.64967350e-05, -3.23850963e-06, 7.92632875e-07,
          -6.97802079e-07 ]
      - [ 1.25960596e-05, -8.53268830e-07, -1.16792000e-06,
          -1.31092102e-05, -5.08808353e-06, -1.04424229e-08,
          -3.35236763e-08, -1.83196818e-07, 2.47897471e-08,
          6.77195374e-07, 1.12338228e-06, -8.14216037e-06,
          -3.96400173e-06, -1.61762944e-06, -2.06322215e-06,
          -3.72769091e-06, 1.46708935e-05, 2.75542470e-06,
          2.39375981e-06, 8.38062988e-06, 6.06886579e-06, 4.82429277e-06,
          2.65885933e-06, 1.64606422e-06, 6.67224685e-06, 2.76929285e-07,
          2.41231987e-07, 4.40106123e-06, 9.11064490e-06, 1.02025833e-05,
          5.62976493e-06, 5.93082632e-07, 1.98416001e-06, 2.34599341e-07,
          1.26578561e-06, -1.32975665e-05, -1.15645253e-06,
          -8.50470258e-07, -7.35566061e-07, -6.04204115e-06,
          9.45781358e-06, -3.66370455e-06, 1.68746237e-06,
          1.87142541e-05, -5.49948572e-06, -1.31275772e-06,
          -5.34667720e-07, 7.31148418e-07, -2.09092032e-05,
          -3.05208850e-05, 3.87321097e-06, 1.85842837e-05,
          2.50792564e-05, 9.62989270e-06, 8.66169466e-06,
          -1.28892761e-05, -6.70031386e-06, -2.41154576e-05,
          5.43122997e-06, 1.09126995e-05, 2.17576435e-05, 4.34362710e-06,
          7.50597383e-06, 4.92877552e-06 ]
      - [ 4.08856249e-05, -1.78984847e-05, -1.20022205e-05,
          -1.88679787e-05, 3.84924033e-06, 2.57878526e-07,
          2.59226766e-07, 9.93112508e-07, 1.58837952e-06,
          -1.94793620e-06, -4.70360965e-06, -8.99885890e-06,
          -1.12610167e-06, -4.23059163e-07, -1.81178763e-07,
          3.87641376e-06, 1.88710983e-05, -1.39493422e-05,
          -8.58509520e-06, 6.39902100e-06, 1.20593641e-05,
          -1.26581745e-05, -1.53379187e-05, -2.98473660e-05,
          -2.02954852e-05, -1.32813693e-05, -1.96067867e-05,
          3.77323863e-06, 2.62835711e-05, -1.84311193e-05,
          -2.00509294e-05, -1.29214259e-05, 4.93766356e-06,
          2.26620250e-06, 3.21358198e-06, 2.83234294e-05, 2.33382252e-06,
          -1.72331129e-05, -8.21555386e-06, -9.45713600e-06,
          8.77958882e-06, 9.40778045e-06, 4.31349417e-06, 3.99881174e-05,
          -6.56551128e-06, -1.11967238e-05, -4.37322933e-06,
          -1.53722863e-06, 8.09784797e-06, -6.57387318e-06,
          -1.26604937e-05, -7.29330441e-06, 1.29701839e-05,
          -7.25997870e-06, -6.58537920e-06, -1.61570915e-05,
          -8.01034366e-06, -1.39713584e-05, -7.59593786e-06,
          6.60324702e-07, 7.07621393e-06, -2.21017581e-05,
          1.36776180e-05, -2.02047681e-06 ]
      - [ 2.31024496e-05, -2.13680214e-05, -1.18794233e-05,
          -3.58041279e-06, 1.15203338e-05, -1.24852207e-07,
          1.64290512e-07, 6.42057714e-08, -3.09178108e-06,
          -1.15898911e-05, 1.39872884e-06, 1.66388838e-06,
          2.84097894e-07, 2.46338203e-07, 1.48574770e-08, 5.72328599e-06,
          3.11765361e-05, -1.32952971e-06, 4.89226409e-07,
          1.09000412e-05, 8.68658663e-06, -1.99093438e-06,
          -5.18749948e-06, -2.82000674e-05, -5.81990707e-06,
          -1.49706398e-06, 4.68769628e-07, 1.27296471e-05,
          1.36516555e-05, -6.25771099e-06, -4.96219172e-06,
          -3.02722874e-05, -4.41991119e-07, 1.94935428e-08,
          -4.86771569e-07, 1.32816494e-05, -1.36833087e-05,
          -1.30589133e-05, -2.64203263e-05, -1.58864168e-05,
          2.81890716e-05, 9.65374738e-07, 4.50620382e-06, 3.93440678e-05,
          -4.79091523e-06, -7.85654265e-06, -7.34450941e-06,
          -2.19879421e-05, -2.47314201e-05, -1.12672542e-05,
          -3.37569072e-05, -1.54685531e-05, 4.61277923e-05,
          1.89956172e-05, 2.09758546e-05, 7.85675365e-06,
          -2.06822806e-05, -5.06632477e-06, -2.90924909e-05,
          -2.00984869e-05, 3.90156747e-05, 9.69811299e-06,
          4.91253741e-06, -5.17024273e-06 ]
      - [ -2.20508059e-06, 4.05400783e-07, 4.40614531e-06,
          -1.01279657e-05, -9.28292047e-06, 1.77758928e-08,
          1.25504755e-07, 4.18148822e-08, 4.79311204e-08, 1.12954098e-07,
          1.71767269e-07, -9.50811682e-06, -3.01153341e-06,
          -8.78353092e-07, -1.04569403e-06, -5.29498038e-06,
          1.51298027e-05, 1.16846541e-05, 4.96671964e-06, 4.53041230e-06,
          8.84868939e-07, 3.81124914e-06, 7.04862350e-06, 1.01833584e-05,
          1.71369647e-05, 1.37732159e-05, 5.61943943e-06,
          -1.98649309e-06, 1.79320853e-06, 9.61570731e-06,
          8.80839889e-06, 1.25007509e-05, -1.52322116e-07,
          -9.89302634e-07, 4.75551315e-06, -1.02510103e-05,
          -5.45603461e-06, 2.87513213e-08, -1.39679082e-06,
          1.81514125e-07, 5.04888612e-06, -6.48701189e-06,
          3.22964070e-06, 8.98986400e-06, -5.48941580e-06,
          -8.15263775e-07, -8.01230613e-07, -3.23349610e-07,
          -2.05801389e-05, -2.57866141e-05, 4.70904115e-06,
          1.61120242e-05, 1.84625842e-05, 1.16178289e-05, 4.10170605e-06,
          -8.10786969e-06, -5.62193327e-06, -1.86527996e-05,
          9.82849997e-06, 1.34510692e-05, 1.23487280e-05, 2.52677592e-06,
          2.84330258e-06, 9.28962436e-07 ]
      - [ -1.58731382e-05, -4.25473991e-05, -1.21066125e-06,
          -1.85509307e-05, 7.99490067e-07, 1.31160078e-07,
          1.20466098e-06, 1.18997627e-06, -6.97756059e-06,
          -1.00285815e-05, -6.41335282e-06, 1.30364015e-06,
          4.86937495e-07, 5.39800283e-07, -9.28523889e-08,
          3.40308191e-07, 2.73655824e-05, 1.35936489e-05, 7.69408052e-06,
          1.74466022e-05, -6.33773061e-06, -1.26054019e-05,
          -1.58034800e-06, -1.83404620e-06, 1.24079133e-05,
          3.79927224e-05, -2.46771788e-06, 2.20041943e-06,
          3.70136104e-06, -3.11765434e-05, -3.12942866e-05,
          1.50016160e-06, 3.33064975e-07, 1.56535111e-06, 3.44841865e-05,
          4.30260479e-05, -3.30067014e-05, -2.90795015e-05,
          -2.97552597e-05, -5.36265452e-06, -3.00991519e-06,
          6.04494335e-06, 1.76725880e-05, 1.92382759e-05,
          -1.09804714e-05, -2.35024654e-05, -1.21419089e-05,
          -7.70069619e-06, -1.35692617e-05, -1.83596821e-05,
          -1.78942209e-05, 9.71696863e-06, 1.26161149e-05,
          -2.98034975e-05, -1.37454654e-05, 1.27593339e-05,
          -3.50403861e-05, -1.70500825e-05, -4.04651246e-06,
          1.19133238e-05, 1.38573648e-06, -5.36351436e-05,
          2.79781602e-06, -6.55680969e-06 ]
      - [ -2.21465416e-05, -1.39875947e-05, 3.76819548e-06,
          -9.98289761e-06, -5.33905862e-08, -8.76375381e-08,
          2.64522697e-07, 1.01715455e-06, -7.63498701e-06,
          -1.54271547e-05, -8.04004628e-07, -5.90901379e-07,
          9.45989711e-07, 7.20023991e-07, 3.88860911e-07, 1.13418167e-07,
          4.85935088e-05, 1.59770098e-05, 7.13585905e-06,
          -6.32613228e-06, -4.94422602e-06, 2.18187074e-06,
          1.22424408e-05, 8.15877229e-06, 2.44813909e-05, 2.76580413e-05,
          1.50804935e-05, -4.03389777e-06, -1.90620558e-05,
          8.39253426e-06, 8.69576553e-08, 1.19637298e-05, 3.21795454e-07,
          5.17336787e-07, 1.03318416e-05, 1.95707489e-05,
          -3.30190887e-05, -1.25793686e-05, -2.94075289e-05,
          -1.46198556e-06, 1.73282679e-05, -9.35636933e-07,
          4.76563127e-06, 5.32937656e-06, -4.89626245e-06,
          -7.73521151e-06, -7.73416741e-06, -2.34503404e-05,
          -3.50665396e-05, -1.32459663e-05, -2.64340051e-05,
          -1.46504144e-05, 3.06081347e-05, 3.42607127e-05,
          1.85504177e-05, 2.15009750e-05, -3.54063122e-05,
          -1.53670626e-05, -1.23988966e-05, 6.75391038e-06,
          1.98068446e-05, 1.01499336e-05, 6.93282846e-06,
          -4.60210458e-06 ]
      - [ -1.29749856e-06, -8.29930195e-06, -4.99216549e-06,
          5.40102837e-06, 9.99127042e-06, 2.55804888e-08, 2.59324402e-08,
          2.12842465e-07, -1.76470348e-06, -1.23642599e-06,
          -3.05583217e-06, 6.50159427e-06, 6.43934118e-06,
          1.36461813e-06, 1.26530608e-06, 4.57965280e-06,
          -6.99958127e-06, -8.80154221e-06, -6.14828696e-06,
          3.63457559e-07, -6.55459553e-06, -9.00638133e-06,
          -1.06399848e-05, -1.22255542e-05, -1.57675549e-05,
          -6.71722273e-06, -5.10584277e-06, 1.28134005e-07,
          -5.96445398e-06, -1.54060072e-05, -2.05015840e-05,
          -1.14637342e-05, 7.72310671e-07, 9.78419735e-07,
          -4.07883860e-08, 1.85777662e-05, 2.42488113e-06,
          -6.04419211e-06, -6.94079108e-06, 6.66622896e-07,
          -2.51472102e-06, 6.62228513e-06, -5.34860703e-07,
          -2.77316553e-06, 5.11206417e-06, -2.85613032e-06,
          -1.76599360e-06, -1.64061669e-06, 1.89865314e-05,
          1.61033404e-05, -1.03447619e-05, -1.37821844e-05,
          -1.47484252e-05, -1.83256652e-05, -1.10680303e-05,
          4.73739146e-06, 1.30128785e-06, 7.77727291e-06,
          -1.50248934e-05, -8.54587870e-06, -1.11261379e-05,
          -1.70392086e-05, -5.20073536e-06, -4.01596071e-06 ]
      - [ -5.03416368e-06, -1.84632245e-05, -1.51600452e-05,
          2.34688414e-05, 1.74945872e-05, -1.25462876e-07,
          -3.68988715e-08, -2.67276647e-07, -2.57197644e-06,
          -1.18580820e-05, -5.87511022e-06, 1.11401887e-05,
          1.24918697e-05, 2.31056401e-06, 3.01806563e-06, 4.55935606e-06,
          -3.08540871e-06, 1.34982974e-06, -5.83703752e-07,
          -4.16978128e-06, -4.56301950e-06, -9.40679729e-06,
          -1.37158304e-05, -2.27902692e-05, -1.74824054e-05,
          -4.95103450e-06, 1.62674928e-06, 7.02928082e-06,
          -1.91154618e-06, -1.92030711e-05, -2.07812682e-05,
          -2.33105911e-05, -7.76155318e-08, 1.28982947e-06,
          -1.74859861e-06, 2.44572966e-05, 8.52225003e-06,
          -1.91679173e-05, -2.01329312e-05, -2.34885692e-06,
          -4.45331716e-06, 9.23589960e-06, -4.91004721e-06,
          -7.64824199e-06, -5.83609619e-07, -1.45070981e-05,
          -9.70379369e-06, -5.22797654e-06, 2.30418627e-05,
          1.35913633e-05, -1.99681526e-05, -3.62661449e-05,
          -2.12127579e-05, -6.80911444e-06, -2.89235231e-06,
          9.81016001e-06, -4.47356371e-07, -3.29950672e-06,
          -1.35078271e-05, -1.94549903e-05, -1.69932428e-05,
          -2.15859018e-06, -2.52476025e-06, -8.34573711e-06 ]
      - [ 5.66318022e-06, 4.04098409e-06, -2.98109217e-06,
          6.58476893e-06, 2.96752461e-07, -1.98443274e-07,
          1.87349620e-08, -2.51829618e-07, 5.82689017e-06,
          -9.47989793e-06, -1.21625965e-06, 5.19826472e-06,
          4.81047209e-07, 2.86193597e-07, -2.05472062e-07,
          -7.24317772e-07, 1.43208081e-05, 2.33132578e-05,
          1.83552820e-05, -2.66652605e-05, 1.80822872e-06,
          1.66975969e-05, 1.78975861e-05, 1.20356781e-05, 2.00654558e-05,
          1.46415769e-05, 1.44001569e-05, -1.32094992e-05,
          -1.49205489e-05, 3.15756806e-05, 3.44184627e-05,
          1.86063189e-05, -4.50809807e-07, -1.00016462e-06,
          -2.13310636e-06, -1.90531628e-05, -2.04759814e-07,
          -1.00452999e-05, 1.33989761e-06, 9.90974968e-06,
          7.50963363e-06, -5.59211003e-07, -3.17104377e-06,
          -8.00585531e-06, 1.09202017e-06, -4.69702218e-06,
          -3.48181311e-06, -2.97852001e-08, -2.21456994e-05,
          -2.90591888e-05, -1.25699235e-05, -1.93320811e-05,
          2.83508816e-05, 4.15853574e-05, 4.05931860e-05, 1.88046233e-05,
          -1.39400236e-05, -1.51360891e-05, 3.32369677e-06,
          -2.42799706e-05, 1.99507031e-05, 5.11804319e-05,
          5.73553325e-06, 4.92943741e-07 ]
   uncompressed_sv_total: 92
   uncompressed_support_vectors:
      - [ 8.75339111e+02, 4.22494629e+03, 3.66868237e+03, 1.67559723e+02,
          1.76168579e+02, 3.76121445e+01, 1.41421354e+00, 0.,
          6.76796509e+02, 5.64674225e+01, 1.33196930e+02, 1.18477509e+02,
          1.22967148e+02, 2.73194561e+01, 0., 3.46001953e+02,
          1.17600410e+04, 1.32246692e+03, 9.00310440e+01, 1.07742683e+02,
          3.01215485e+02, 5.81472778e+02, 7.05599731e+02, 3.78850659e+03,
          7.60899365e+03, 2.34692154e+02, 2.61830505e+02, 4.36758080e+01,
          6.17239868e+02, 5.03070459e+03, 6.14101807e+03, 1.30384971e+04,
          9.24605026e+01, 1.57858448e+01, 5.04064362e+02, 3.54538794e+03,
          4.07643945e+03, 3.79229224e+03, 4.66029932e+03, 4.46697083e+02,
          7.78549805e+03, 2.39378784e+03, 9.53627136e+02, 1.26343396e+03,
          1.34572192e+03, 1.95512549e+03, 1.42271655e+03, 3.22356592e+03,
          1.34064912e+04, 2.21471313e+03, 9.08386230e+02, 2.06589771e+03,
          2.80473389e+03, 1.48953113e+03, 5.84836084e+03, 2.32709414e+04,
          3.62108086e+04, 5.99179834e+03, 3.84796729e+03, 6.07392920e+03,
          5.00170898e+03, 1.10213879e+03, 2.82166382e+02, 1.78572441e+04 ]
      - [ 5.71779785e+02, 5.23039600e+03, 4.85778320e+03, 2.79249390e+03,
          1.45038406e+02, 3.32866325e+01, 0., 0., 22., 3.31362061e+02,
          7.70049927e+02, 2.63058929e+01, 2.61264534e+01, 7.21110249e+00,
          7.65821381e+01, 2.98049072e+02, 1.33622422e+04, 9.33085754e+02,
          9.61475754e+01, 2.41597397e+02, 8.45337524e+02, 1.02068378e+03,
          2.13892920e+03, 1.14132354e+04, 9.97726953e+03, 2.70189282e+03,
          0., 0., 5.10553856e+01, 4.27480713e+03, 4.82404004e+03,
          1.13446465e+04, 50., 3.64823265e+01, 0., 4.46544824e+03,
          7.45978662e+03, 6.14503076e+03, 5.22412744e+03, 1.07645874e+03,
          3.72498169e+03, 4.27418060e+01, 9.21509583e+02, 4.16865283e+03,
          4.19391406e+03, 1.37195667e+03, 2.48979828e+02, 1.26491108e+01,
          9.97865137e+03, 3.24342358e+03, 2.38070776e+03, 4.38728174e+03,
          3.72449390e+03, 2.73189038e+03, 3.59265039e+03, 2.86561680e+04,
          1.81147969e+04, 4.61577783e+03, 4.40630713e+03, 5.32548096e+03,
          4.43887402e+03, 4.18670837e+02, 3.44329907e+03, 1.14194482e+04 ]
      - [ 1.52505539e+02, 6.38725647e+02, 4.00437793e+03, 2.08705078e+03,
          1.10360680e+02, 1.65529461e+01, 0., 3.16227770e+00, 16.,
          8.62531567e+00, 0., 1.28819611e+02, 1.25929405e+02,
          4.91934929e+01, 3.14638309e+01, 8.53285370e+01, 1.27474678e+04,
          4.09845605e+03, 7.65899963e+02, 1.35603455e+02, 5.05175812e+02,
          5.18982666e+02, 4.04804834e+03, 7.75190186e+03, 1.22676787e+04,
          2.75427002e+03, 8.95806152e+02, 3.46758301e+02, 2.07781079e+03,
          6.39843262e+03, 4.29779248e+03, 1.29260186e+04, 3.28290894e+02,
          2.10235565e+02, 1.69530350e+02, 5.03809180e+03, 6.87651709e+03,
          4.63964648e+03, 7.08558411e+02, 2.18287817e+03, 2.76614233e+03,
          2.01939178e+02, 1.78709686e+02, 9.12506638e+01, 2.44932785e+02,
          9.47414627e+01, 1.49394501e+02, 5.63224106e+01, 1.19234150e+04,
          3.42784229e+03, 1.83097510e+03, 4.36010205e+03, 3.94530322e+03,
          4.43215527e+03, 5.07618652e+03, 1.56876328e+04, 2.45085645e+04,
          5.38196680e+03, 5.92586719e+03, 1.34018867e+04, 1.00385029e+04,
          3.58402075e+03, 3.33344312e+03, 9.68681250e+03 ]
      - [ 74., 1.80230396e+03, 5.74161035e+03, 6.55218213e+03,
          1.40206250e+03, 1.14017534e+01, 3.84479027e+01, 4.70633583e+01,
          1.12364456e+02, 2.63903931e+03, 3.41783545e+03, 2.93069824e+03,
          2.22184509e+02, 0., 7.81592178e+01, 0., 1.11019238e+03,
          2.72485229e+02, 2.48523453e+02, 5.14885635e+01, 2.16654053e+03,
          4.70760107e+03, 7.12943994e+03, 1.03806436e+04, 1.35570264e+04,
          3.71552246e+03, 1.37604752e+02, 3.57278061e+01, 8.97325781e+03,
          5.20166113e+03, 3.50886841e+03, 7.39030640e+02, 1.97432541e+02,
          1.19418045e+02, 1.76983505e+02, 2.59403149e+03, 9.87830176e+03,
          6.32985059e+03, 5.40623096e+03, 1.25086377e+03, 3.58836572e+03,
          2.07080032e+02, 2.19544983e+01, 1.65033838e+03, 7.48556055e+03,
          4.84311230e+03, 1.27318872e+03, 1.70948849e+01, 1.19800781e+04,
          6.88536523e+03, 4.01026270e+03, 5.85385498e+03, 5.04726904e+03,
          1.83012650e+02, 3.83439355e+03, 1.68765020e+04, 2.04426113e+04,
          8.79560938e+03, 8.76695996e+03, 8.84364648e+03, 4.86304834e+03,
          8.80034851e+02, 4.87914160e+03, 1.26027051e+04 ]
      - [ 2.75255219e+02, 1.72401566e+02, 3.07428784e+03, 7.07752914e+01,
          7.70262985e+01, 0., 1.14878063e+01, 5.83231659e+01, 0.,
          3.81145859e+01, 1.20830460e+01, 0., 2.28870926e+02,
          1.25430595e+02, 1.48592972e+02, 9.64635010e+01, 1.12341738e+04,
          6.91525830e+03, 1.16358301e+03, 9.77827225e+01, 2.81077332e+02,
          2.96977158e+01, 7.41897278e+02, 8.21716113e+03, 1.40085137e+04,
          4.63505585e+02, 7.06837463e+01, 1.12156509e+02, 4.30971680e+02,
          3.36175781e+03, 8.40309375e+03, 1.09509561e+04, 3.35625122e+02,
          1.30003128e+02, 1.72351611e+03, 3.93409912e+03, 4.08444189e+03,
          3.79096973e+03, 3.05036469e+02, 1.77567322e+03, 1.75824622e+03,
          0., 1.15962512e+03, 2.06288599e+03, 1.11142273e+03,
          1.05294592e+03, 6.66983215e+02, 1.79063263e+02, 1.32730117e+04,
          4.11461230e+03, 1.64872485e+03, 1.17401782e+03, 2.09557788e+03,
          2.18698242e+03, 8.81002637e+03, 1.60911289e+04, 1.70527188e+04,
          9.61838965e+03, 6.05712793e+03, 3.83386914e+03, 4.74044727e+03,
          2.66949731e+03, 3.22030737e+03, 1.40523721e+04 ]
      - [ 1.31416382e+02, 3.65350513e+03, 5.28804688e+03, 4.21445850e+03,
          1.11993604e+03, 1.28530396e+02, 0., 0., 1.30655075e+02,
          3.27894257e+02, 4.16326563e+03, 1.48340622e+02, 2.13776367e+02,
          3.92353821e+01, 5.87389297e+01, 2.30217285e+01, 8.22619922e+03,
          1.53932288e+03, 1.07508972e+02, 7.18796997e+02, 1.57308496e+03,
          2.69579980e+03, 5.76010596e+03, 8.99284375e+03, 1.20346025e+04,
          3.78649756e+03, 1.10717186e+02, 6.38168152e+02, 5.75829980e+03,
          4.89581445e+03, 6.29290283e+03, 8.08195947e+03, 1.20405884e+02,
          1.78885441e+01, 6.42028046e+01, 5.40014209e+03, 1.09596328e+04,
          5.24847803e+03, 3.23089917e+03, 1.54369006e+03, 2.83843604e+03,
          1.97989902e+01, 1.74806915e+02, 4.47800293e+03, 5.54183496e+03,
          3.16638770e+03, 9.69074097e+02, 5.09901953e+00, 9.29103320e+03,
          5.49702539e+03, 4.66062939e+03, 5.22945410e+03, 7.00872119e+03,
          1.05668762e+03, 3.78597778e+03, 1.62737197e+04, 1.76756191e+04,
          5.70474170e+03, 8.42660254e+03, 7.96186719e+03, 6.81644971e+03,
          6.34038086e+02, 5.36137207e+03, 1.06347520e+04 ]
      - [ 1.92151749e+02, 1.41960846e+02, 5.96245313e+03, 3.92103149e+03,
          9.70871399e+02, 2.51086292e+01, 0., 0., 7.00907211e+01,
          7.22672501e+01, 2.55400116e+02, 4.82061157e+02, 2.96297516e+02,
          1.01576675e+02, 4.53476028e+01, 1.23965042e+02, 1.27782373e+04,
          1.47662427e+03, 4.21854340e+02, 2.85066602e+03, 1.03378613e+03,
          1.23606003e+02, 1.91367828e+02, 2.98915802e+02, 3.21228394e+02,
          3.43740753e+02, 1.71645889e+02, 3.90009375e+03, 5.33381396e+03,
          3.28622534e+03, 3.23329175e+03, 2.06004883e+04, 1.30547339e+03,
          1.97022070e+03, 2.02340894e+03, 4.01628296e+03, 3.08097095e+03,
          1.76379602e+03, 2.52538232e+03, 3.27285571e+03, 3.97958447e+03,
          2.25965430e+03, 5.20235107e+02, 4.38495148e+02, 5.82114014e+02,
          1.56375183e+02, 2.36531433e+02, 2.51405182e+02, 2.11601050e+03,
          6.01889099e+02, 3.13964661e+02, 6.65931946e+02, 4.46095703e+02,
          8.65706909e+02, 1.63899915e+03, 3.74007578e+04, 1.81716797e+04,
          1.60463208e+03, 9.05537903e+02, 5.03000879e+03, 3.18894092e+03,
          3.09523804e+03, 2.00692773e+03, 2.13055298e+03 ]
      - [ 3.50369080e+02, 9.01050354e+02, 6.00307190e+02, 6.26428662e+03,
          2.58876709e+02, 9.56136322e+01, 1.12573517e+02, 6.70684433e+01,
          1.76090729e+02, 9.10365753e+01, 2.17039307e+02, 2.27948120e+03,
          2.77402783e+03, 1.84273523e+03, 5.32217712e+02, 1.82868469e+02,
          3.01359473e+03, 1.29272461e+03, 1.12136804e+03, 4.54422412e+03,
          6.74815369e+02, 8.30435547e+02, 4.98825623e+02, 5.51404785e+02,
          6.22407898e+02, 1.72905273e+02, 3.34331024e+02, 2.27851099e+03,
          3.82914795e+03, 9.07961060e+02, 2.46415970e+02, 1.73048022e+03,
          3.68329712e+02, 1.63946777e+02, 5.29377930e+02, 1.13558887e+04,
          7.37419189e+02, 0., 1.34777991e+03, 4.40458398e+03,
          7.16256250e+03, 1.63194412e+02, 1.45909058e+02, 5.77934799e+01,
          1.68131363e+02, 6.25424622e+02, 1.17319678e+03, 2.89997070e+03,
          3.13161660e+04, 1.93381958e+03, 2.09355835e+02, 2.70012604e+02,
          3.43937451e+03, 1.86611853e+03, 1.44454163e+03, 7.86632910e+03,
          3.61141641e+04, 7.69619263e+02, 9.37452820e+02, 1.20363672e+04,
          5.40809033e+03, 4.94720383e+01, 2.79948242e+02, 3.32962158e+03 ]
      - [ 4.42719086e+02, 1.89546951e+02, 3.68185608e+02, 3.74545898e+02,
          1.38071335e+02, 0., 3.78214417e+01, 9.44903336e+01,
          9.32445145e+01, 9.72211533e+01, 5.27605515e+01, 2.53474770e+01,
          3.68714142e+02, 9.52903320e+02, 4.11981140e+02, 3.08154236e+02,
          1.51410535e+03, 1.02261932e+03, 2.64347974e+03, 1.44657190e+03,
          1.02509607e+03, 1.53571747e+02, 1.75428986e+02, 2.19618820e+02,
          4.16252167e+02, 2.81817627e+02, 4.32731964e+02, 8.15952698e+02,
          3.30197314e+03, 1.71899231e+03, 1.48796741e+03, 1.16355396e+03,
          2.77866284e+03, 1.79055164e+03, 1.80853601e+03, 2.63291895e+03,
          1.38262427e+03, 1.96268298e+03, 1.71648071e+02, 7.35202197e+03,
          9.96832910e+03, 1.35191345e+02, 8.83638306e+01, 1.27682953e+02,
          2.16187744e+02, 1.98107208e+02, 1.85777197e+03, 4.20803027e+03,
          3.00659668e+04, 1.76998120e+03, 9.00723389e+02, 1.35501053e+02,
          6.11294983e+02, 1.23665125e+03, 1.78823108e+03, 2.06996328e+04,
          2.90624023e+04, 4.06978088e+02, 8.97615906e+02, 1.08550557e+04,
          4.84413574e+03, 4.57203400e+02, 5.72956604e+02, 2.04423071e+03 ]
      - [ 4.00791817e+01, 9.61512146e+01, 6.11734802e+02, 7.09840625e+03,
          284., 0., 3.00000019e+01, 3.16227770e+00, 6., 2.96537514e+01,
          2.10624981e+01, 7.54153214e+01, 5.47125122e+02, 5.83095169e+00,
          1.33038651e+02, 0., 1.85528965e+04, 1.93425195e+03,
          8.84222961e+02, 6.31216602e+03, 4.66785010e+03, 8.95879440e+01,
          1.89294815e+01, 6.91499710e+01, 4.10612183e+02, 2.04624863e+02,
          2.01276688e+02, 7.84179883e+03, 1.40115322e+04, 9.24305176e+02,
          7.15564331e+02, 6.09800232e+02, 1.95610519e+02, 4.23583954e+02,
          3.84705249e+03, 5.03201123e+03, 1.76293958e+03, 8.82647217e+02,
          5.90110596e+02, 1.04148596e+03, 1.11807158e+04, 1.94595520e+02,
          1.42508240e+02, 2.47973766e+01, 2.72841705e+02, 2.69625946e+02,
          2.26812729e+02, 1.35145844e+02, 6.21442188e+03, 1.40308136e+02,
          2.14321289e+02, 2.86866479e+03, 5.36226904e+03, 1.51765222e+03,
          1.73601868e+03, 4.53003857e+03, 4.18932031e+04, 3.21388611e+02,
          1.18276416e+03, 8.58926758e+03, 1.24180273e+04, 3.41658203e+02,
          9.16019165e+02, 1.61727527e+03 ]
      - [ 1.64542456e+03, 9.40621338e+02, 1.98270776e+03, 5.25534375e+03,
          2.60676575e+02, 1.69923157e+02, 7.34506531e+01, 3.60555115e+01,
          5.46645050e+01, 1.70293865e+01, 2.60768108e+01, 3.76590210e+03,
          1.44459546e+03, 1.05118250e+03, 1.14640369e+03, 1.59084448e+03,
          3.11687134e+02, 4.52861694e+02, 1.45810638e+02, 1.47314774e+02,
          3.61814728e+02, 2.14572403e+02, 6.71765015e+02, 5.30997131e+02,
          1.00137158e+03, 3.80405273e+02, 9.42898712e+01, 3.43905945e+01,
          1.46516418e+02, 1.92353840e+01, 4.49824371e+01, 1.76937439e+02,
          2.14775830e+03, 1.71480515e+02, 3.59770142e+02, 9.39160059e+03,
          4.44384863e+03, 1.44478394e+03, 1.74312500e+03, 4.35555420e+03,
          6.51820947e+03, 9.11518478e+01, 3.54304657e+02, 3.55471265e+03,
          1.28339758e+03, 3.74132141e+02, 1.40849475e+03, 8.24500305e+02,
          2.79269219e+04, 5.36198425e+02, 2.28098892e+02, 4.36646301e+02,
          3.09148102e+02, 3.77561462e+02, 3.94793427e+02, 2.05922168e+04,
          2.76070039e+04, 1.36112769e+03, 1.80997314e+03, 9.04431885e+02,
          4.68785693e+03, 1.14763647e+03, 1.05134497e+03, 1.37023203e+04 ]
      - [ 3.11708203e+03, 5.38722534e+02, 3.15313208e+03, 4.43571436e+03,
          160., 0., 0., 0., 0., 3.31058922e+01, 5.46193909e+02,
          2.56186719e+03, 14., 2.65685089e+02, 4.15576904e+02,
          1.47108691e+03, 6.46833252e+02, 3.32154007e+01, 5.45462837e+01,
          1.50332956e+01, 76., 1.61245155e+01, 3.11768494e+01, 0., 4.,
          0., 6.44208145e+01, 2.59634790e+03, 1.26310474e+03,
          1.06518494e+03, 2.20857861e+03, 1.79984985e+03, 3.38241425e+02,
          2.16177078e+02, 9.84759949e+02, 4.80752197e+03, 1.01829413e+03,
          3.80609436e+02, 7.14457825e+02, 3.08956665e+03, 1.36447451e+04,
          1.04004890e+02, 3.25576401e+01, 1.07878040e+03, 6.69962708e+02,
          1.01298126e+03, 2.13832138e+02, 9.28829163e+02, 1.09980674e+04,
          4.83897278e+02, 6.90545044e+02, 5.64860474e+02, 9.41257751e+02,
          2.05912609e+01, 1.11036487e+03, 6.18759180e+03, 4.98455000e+04,
          7.12499268e+02, 4.42733002e+02, 1.50340283e+03, 3.52872656e+03,
          1.90933276e+03, 2.52843774e+03, 1.68336777e+04 ]
      - [ 3.04128271e+03, 6.33447876e+02, 1.12597388e+03, 7.12856152e+03,
          142., 1.25299644e+02, 0., 0., 2.16080475e+02, 2.00547058e+03,
          2.95807007e+03, 2.41845679e+03, 2.38151794e+02, 9.96540070e+01,
          0., 1.08145044e+03, 8.74914160e+03, 5.22832813e+03,
          5.36014160e+03, 9.99792542e+02, 3.74879639e+03, 8.61751587e+02,
          1.01710754e+03, 8.48129700e+02, 1.83969128e+03, 5.96103174e+03,
          4.22644971e+03, 3.42133081e+03, 6.74767285e+03, 1.05711707e+03,
          1.54158215e+03, 3.17001709e+03, 1.59505112e+02, 2.09377075e+02,
          1.10227715e+02, 1.26519617e+03, 7.86803027e+03, 3.32959521e+03,
          3.07812378e+03, 3.55763770e+03, 3.78860938e+03, 3.72307495e+02,
          5.28545990e+01, 2.38877710e+03, 3.64881763e+03, 1.67022437e+03,
          1.99039978e+03, 8.43752319e+02, 2.79888525e+03, 2.66063940e+03,
          9.90577930e+03, 9.49134570e+03, 6.06723438e+03, 7.53292114e+02,
          1.16101843e+03, 1.28976094e+04, 1.22244609e+04, 8.16897754e+03,
          1.15746475e+04, 1.23077305e+04, 5.02377441e+03, 4.27433746e+02,
          7.88361267e+02, 1.90705908e+03 ]
      - [ 1.88421545e+03, 2.90612476e+03, 2.69611328e+03, 8.76309204e+02,
          6.90151520e+01, 0., 2.26715679e+01, 4.12339172e+01,
          1.88073471e+02, 1.23183691e+03, 2.55000562e+03, 1.14860217e+03,
          2.39456726e+02, 2.40238708e+02, 2.13036758e+02, 2.83512054e+02,
          4.75421051e+02, 6.25202979e+03, 1.22927771e+03, 2.62650604e+02,
          1.78207718e+02, 3.10866943e+02, 1.12568970e+02, 3.81041656e+02,
          4.41376495e+02, 2.29708911e+03, 2.98827545e+02, 4.00003601e+02,
          6.12460303e+03, 4.79000549e+02, 1.14022180e+03, 1.42252917e+03,
          100., 1.98494339e+01, 1.41834778e+02, 3.04623828e+03,
          4.25931152e+03, 3.65382837e+03, 3.73387964e+03, 2.58211646e+03,
          6.78794092e+03, 2.26770386e+02, 2.66181702e+02, 2.38298364e+03,
          2.25043213e+03, 3.25820313e+03, 2.32624561e+03, 3.62215424e+01,
          6.84035547e+03, 9.72430371e+03, 2.80905615e+03, 5.35755518e+03,
          8.42000488e+03, 5.62175110e+02, 6.49437500e+02, 4.66552295e+03,
          2.14806914e+04, 1.87233203e+04, 2.82471533e+03, 3.09650610e+03,
          1.33180127e+04, 3.00708801e+02, 7.51961243e+02, 3.82821021e+03 ]
      - [ 8.89312668e+01, 9.42019119e+01, 2.61060596e+03, 9.86397949e+03,
          4.32099414e+03, 2.06155289e+02, 4.52172791e+02, 6.95701141e+01,
          1.07891174e+02, 1.52845047e+02, 6.03438477e+02, 1.25239514e+03,
          1.94574304e+03, 2.53910446e+02, 3.05286751e+01, 0.,
          2.11739575e+03, 1.71166133e+04, 4.63579102e+03, 1.33267432e+03,
          2.87428760e+03, 3.61710541e+02, 7.30721252e+02, 3.21125366e+02,
          1.29168018e+03, 1.89860876e+03, 2.44726221e+03, 6.99147266e+03,
          8.76979297e+03, 8.11285034e+02, 9.26871277e+02, 5.28709717e+02,
          3.53189148e+02, 2.85112274e+02, 3.23552216e+02, 1.37302747e+03,
          5.74212891e+03, 4.64934180e+03, 9.85535034e+02, 2.39975781e+03,
          2.94082178e+03, 4.63785309e+02, 2.39125305e+02, 2.95016663e+02,
          5.26512268e+02, 2.84169373e+02, 3.12048523e+02, 4.57776306e+02,
          4.02354688e+03, 1.21069355e+04, 2.36834644e+03, 9.59611816e+03,
          7.58806055e+03, 5.31581299e+03, 6.76447803e+03, 1.26360928e+04,
          1.39638652e+04, 2.32768789e+04, 5.30703125e+03, 3.49755591e+03,
          2.94393872e+03, 3.89421191e+03, 2.41011548e+03, 4.11214404e+03 ]
      - [ 3.33831451e+02, 5.08042938e+02, 3.48151904e+03, 3.19348877e+03,
          5.09385010e+02, 0., 1.46035385e+02, 0., 5.48993950e+01,
          2.28172104e+02, 9.74674255e+02, 3.83837476e+03, 1.89831921e+03,
          2.06547821e+02, 6.71358337e+01, 4.68201447e+01, 1.59616675e+03,
          7.90088574e+03, 4.86778174e+03, 5.15001709e+03, 3.15256299e+03,
          3.00156525e+02, 4.44791809e+02, 4.11524849e+01, 5.24400452e+02,
          7.14342346e+02, 5.40978125e+03, 1.04824150e+04, 1.54207544e+03,
          1.71324512e+03, 3.51013275e+02, 1.71538293e+03, 2.96687195e+02,
          6.91194839e+01, 2.59377625e+02, 1.11381555e+03, 6.84871777e+03,
          4.16083838e+03, 4.13480811e+03, 5.71170410e+03, 1.75007605e+03,
          2.45083008e+01, 1.61245155e+01, 8.23221664e+01, 4.49821045e+03,
          1.80536462e+03, 2.08090698e+03, 1.23352759e+03, 6.37568896e+03,
          7.31056982e+03, 5.57306348e+03, 1.33420098e+04, 3.10818481e+03,
          1.23503076e+03, 1.70158374e+03, 2.10000762e+04, 7.75521973e+03,
          8.49894141e+03, 1.35317715e+04, 1.58243379e+04, 2.85139697e+03,
          5.90115601e+02, 6.79207520e+02, 2.62124536e+03 ]
      - [ 5.66403625e+02, 4.20905609e+02, 1.17720288e+03, 5.44096484e+03,
          2.02580420e+03, 6.38124161e+01, 3.13049507e+01, 3.10617104e+01,
          1.43080530e+03, 1.17617468e+03, 2.95525586e+03, 3.06878760e+03,
          8.69891479e+02, 2.36630508e+02, 2.70185127e+01, 2.73290186e+03,
          6.25610413e+02, 1.36957751e+03, 1.09426973e+04, 9.66850769e+02,
          2.93011816e+03, 7.40921692e+02, 1.66113998e+02, 5.42090088e+02,
          6.31627930e+02, 5.33904724e+02, 3.03946582e+03, 8.09076514e+03,
          3.86000244e+03, 1.35484265e+03, 6.88384888e+02, 7.16090698e+02,
          912., 5.78449936e+01, 1.20830460e+01, 9.10079590e+02,
          7.55860498e+03, 3.64833569e+03, 4.27179199e+03, 3.20754907e+03,
          3.03701294e+03, 9.76726807e+02, 1.51979324e+02, 1.55003845e+02,
          7.51203369e+03, 4.50476611e+03, 1.99507837e+03, 1.12704492e+03,
          7.80976221e+03, 9.78595215e+03, 6.29804053e+03, 1.43791270e+04,
          1.40247571e+03, 3.69070190e+02, 7.72238098e+02, 1.43338896e+04,
          1.27402432e+04, 1.12663828e+04, 1.05619561e+04, 1.58069590e+04,
          1.76738562e+03, 1.85469498e+02, 9.69002991e+01, 4.73880322e+03 ]
      - [ 1.78414941e+03, 1.37385352e+03, 1.86417444e+03, 1.59846631e+03,
          9.24078827e+01, 8.07562683e+02, 9.81269470e+02, 8.90870911e+02,
          5.05682404e+02, 4.58269318e+02, 9.33294495e+02, 6.69563049e+02,
          9.10185089e+01, 2.82075615e+01, 3.82883797e+01, 1.70293865e+01,
          3.68430664e+03, 9.45082910e+03, 3.07766510e+02, 5.97080994e+02,
          2.37195386e+03, 6.68027100e+02, 4.24344902e+01, 1.60392407e+03,
          1.97832800e+03, 3.49582935e+03, 2.77601123e+03, 2.71091284e+03,
          5.18670508e+03, 2.07975293e+03, 1.44042358e+03, 2.23394604e+03,
          1.62718811e+02, 1.34164085e+01, 1.17492325e+02, 1.37840857e+03,
          3.21902246e+03, 3.18391577e+03, 2.66637646e+03, 7.60913086e+03,
          1.97706165e+03, 1.32956268e+02, 1.40710114e+02, 7.83115662e+02,
          1.09468616e+03, 1.27854749e+03, 2.18615405e+03, 2.28758643e+03,
          7.50428760e+03, 1.09877188e+04, 1.61796594e+03, 1.00837048e+03,
          8.74462207e+03, 2.43871045e+03, 2.29949878e+03, 1.51061025e+04,
          1.43585859e+04, 1.34501182e+04, 7.79256104e+03, 3.66188110e+03,
          5.56350586e+03, 3.23110913e+03, 3.00471069e+02, 1.00221320e+03 ]
      - [ 1.33468292e+02, 7.80109100e+01, 2.91641968e+03, 5.92689941e+03,
          1.85074512e+03, 1.03893715e+02, 4.24264050e+00, 5.36613007e+01,
          142., 2.00330772e+01, 7.18022339e+02, 3.79149561e+03,
          3.06014380e+03, 3.42052650e+01, 2.05957756e+01, 8.62194824e+01,
          3.10033386e+02, 4.10169678e+03, 6.95557813e+03, 1.98373206e+03,
          3.89711621e+03, 8.32336182e+02, 1.95847015e+02, 4.12973907e+02,
          1.83364990e+02, 1.66820886e+03, 5.21287939e+03, 2.07961011e+03,
          1.30527588e+04, 3.87602325e+02, 4.30148865e+02, 3.93634247e+02,
          46., 1.56205006e+01, 1.47648239e+01, 1.09818481e+02,
          3.83112695e+03, 3.71876831e+03, 2.22694189e+03, 5.60608093e+02,
          6.70959473e+03, 1.38403641e+02, 3.16168945e+02, 4.28321411e+02,
          3.99554413e+02, 6.92786865e+02, 1.03242821e+02, 5.07817612e+01,
          4.57843359e+03, 5.69491162e+03, 2.33454224e+03, 4.51656104e+03,
          7.98944092e+03, 5.24192749e+02, 2.08332251e+03, 8.34674609e+03,
          1.64731484e+04, 1.36677188e+04, 5.44215332e+03, 4.03763843e+03,
          1.03360791e+04, 2.40652100e+03, 3.07446045e+03, 3.19054517e+03 ]
      - [ 2.13950903e+03, 2.94686646e+03, 2.25423608e+03, 2.09325635e+03,
          112., 0., 2.71041451e+01, 1.33416643e+01, 0., 7.07106829e+00,
          3.70632813e+02, 1.14023781e+02, 6.50585999e+02, 1.07375012e+03,
          3.78385498e+02, 4.65123352e+02, 1.77640840e+04, 6.07674658e+03,
          2.98878174e+03, 1.18010574e+02, 6.20743835e+02, 6.45463562e+02,
          3.28234589e+02, 1.47536963e+03, 5.69951025e+03, 4.55491602e+03,
          1.27280945e+03, 2.92135400e+03, 5.41228369e+03, 2.01967773e+03,
          2.24208105e+03, 8.82481836e+03, 2.44733276e+02, 2.40831909e+01,
          3.16227760e+01, 1.22529004e+03, 2.20736157e+03, 2.32924951e+03,
          4.26950830e+03, 2.93458789e+03, 3.34603101e+03, 1.22789284e+02,
          4.65293915e+02, 1.41506238e+03, 1.80103760e+03, 5.29692932e+02,
          3.49558136e+02, 9.56073990e+01, 4.93803760e+03, 5.57914697e+03,
          2.03430786e+03, 6.08610303e+03, 6.35896631e+03, 8.21635986e+02,
          1.55118164e+03, 1.76543906e+04, 1.19404941e+04, 1.05981885e+04,
          7.18252344e+03, 5.87552441e+03, 9.60553223e+03, 1.90910071e+03,
          1.92346277e+03, 2.90961206e+03 ]
      - [ 2.32695605e+03, 1.68391174e+03, 2.74974756e+03, 1.94482697e+02,
          148., 9.80384293e+01, 2.48628937e+02, 8.76840286e+01,
          3.02764404e+02, 8.52723633e+02, 1.63060181e+03, 2.16600342e+02,
          1.60325989e+02, 1.44222050e+01, 5.76888199e+01, 1.19093277e+02,
          1.62031323e+03, 2.70363037e+03, 5.56928271e+03, 3.53407349e+02,
          5.91272644e+02, 7.54822388e+02, 4.21052643e+02, 4.86869537e+02,
          3.50906952e+02, 1.60001501e+03, 1.08257922e+03, 2.01108740e+03,
          4.97618994e+03, 1.30866101e+03, 1.06257690e+03, 1.58789111e+03,
          148., 1.15473862e+02, 1.42533618e+03, 3.81732568e+03,
          4.70637354e+03, 3.35586646e+03, 2.74726001e+03, 7.14049902e+03,
          2.94991650e+03, 2.12132034e+01, 1.17547803e+03, 2.45729932e+03,
          2.16238916e+03, 2.21403174e+03, 2.22749512e+03, 2.00055817e+02,
          6.63598438e+03, 10370., 3.33135962e+03, 5.74488818e+03,
          7.17453271e+03, 6.56140442e+02, 1.16695679e+03, 1.59084326e+04,
          1.83295742e+04, 1.62269873e+04, 3.63096826e+03, 1.78708862e+03,
          1.16368447e+04, 7.18089111e+02, 5.28408508e+02, 3.62796411e+03 ]
      - [ 2.14318286e+03, 4.29385620e+02, 9.28279358e+02, 4.88123682e+03,
          2.09092560e+02, 4.38671913e+01, 0., 2.43310490e+01,
          1.47332855e+02, 1.74212036e+02, 4.64211523e+03, 4.94842987e+01,
          3.28539337e+02, 1.09182617e+02, 4.98479218e+02, 1.10117957e+03,
          7.51349902e+03, 4.65744727e+03, 3.74897583e+03, 3.14213043e+02,
          2.39476611e+03, 9.13757263e+02, 3.98387726e+02, 9.42248291e+02,
          3.09382031e+03, 4.91121484e+03, 1.25535645e+03, 3.69296558e+03,
          3.68177026e+03, 1.08552527e+03, 1.00793396e+03, 2.52180469e+03,
          1.61892654e+02, 5.04613190e+01, 1.32999741e+02, 4.04221313e+03,
          5.24395654e+03, 3.86624561e+03, 3.57084912e+03, 5.13211133e+03,
          3.39756689e+03, 2.42492996e+02, 5.19670654e+02, 3.38233618e+03,
          5.54973438e+03, 1.89824072e+03, 1.77793164e+03, 6.35671539e+01,
          2.66151978e+03, 2.79405811e+03, 1.27209395e+04, 9.11671973e+03,
          8.80949414e+03, 6.04365967e+02, 5.70952576e+02, 1.82209258e+04,
          1.31842549e+04, 6.11404785e+03, 1.53839404e+04, 9.53508008e+03,
          1.06006475e+04, 4.49074768e+02, 8.14848877e+02, 2.39451294e+03 ]
      - [ 1.07473157e+03, 1.45411707e+03, 3.73894196e+02, 5.41313135e+03,
          3.85678760e+03, 3.63872147e+01, 4.93966370e+01, 1.89736671e+01,
          46., 0., 0., 2.74306665e+03, 5.12303857e+03, 1.93334814e+03,
          9.70995300e+02, 1.60679199e+03, 8.30620703e+03, 6.52688379e+03,
          4.76150342e+03, 3.07454468e+02, 6.69191589e+02, 6.21934875e+02,
          1.18927515e+03, 1.19914087e+03, 1.79071082e+03, 7.31724365e+02,
          4.69221115e+01, 1.28751062e+03, 3.37165894e+03, 1.77561890e+03,
          9.27014954e+02, 4.99190967e+03, 36., 1.41421354e+00,
          1.03030872e+01, 2.97148608e+03, 8.60582422e+03, 6.14252100e+03,
          5.77112109e+03, 3.78139282e+03, 488., 0., 4.47213602e+00,
          2.35208813e+03, 6.90660693e+03, 1.35757898e+03, 7.38520264e+02,
          9.48683357e+00, 3.37381372e+03, 3.29019653e+03, 1.16126943e+04,
          6.96799756e+03, 1.27361934e+04, 2.39674194e+03, 2.30661084e+03,
          2.00843711e+04, 9.55261914e+03, 7.26003320e+03, 1.82394609e+04,
          1.91784004e+04, 7.73757568e+02, 3.11127777e+02, 1.88100708e+03,
          2.85827930e+03 ]
      - [ 2.85077563e+03, 4.76890686e+02, 8.76078125e+02, 2.97798315e+03,
          1.58520538e+02, 0., 4.85717010e+01, 1.14590889e+02,
          2.67461121e+02, 8.82970337e+02, 1.25539673e+03, 3.04128418e+02,
          2.25309540e+02, 7.77319565e+01, 3.76085358e+02, 5.81453735e+02,
          8.63214746e+03, 4.21770557e+03, 1.22846509e+03, 2.79170624e+02,
          4.08179230e+02, 5.98873535e+02, 8.42309448e+02, 6.81677856e+02,
          2.63227686e+03, 2.85862451e+03, 1.61803406e+03, 3.12560571e+03,
          1.62662134e+03, 9.38228638e+02, 1.41926660e+03, 2.08605688e+03,
          2.53245483e+02, 6.72480316e+01, 4.52769279e+01, 5.16565186e+03,
          5.86208447e+03, 4.17979443e+03, 3.36303564e+03, 2.64898340e+03,
          5.89514746e+03, 1.79183807e+02, 1.93016687e+03, 4.25883203e+03,
          4.92281641e+03, 2.37488989e+03, 1.28264453e+03, 5.56626740e+01,
          3.76473462e+03, 3.16908936e+03, 1.57080781e+04, 7.20609766e+03,
          1.22142324e+04, 4.56354187e+02, 7.04783081e+02, 1.80211035e+04,
          1.66559473e+04, 8.08720361e+03, 1.76032441e+04, 7.52967188e+03,
          1.21039043e+04, 7.95784119e+02, 9.93567017e+02, 2.00288892e+03 ]
      - [ 3.91175171e+02, 5.57784363e+02, 3.87156281e+02, 4.14967383e+03,
          4.03786328e+03, 2.24535309e+02, 5.01908905e+02, 4.28445038e+02,
          3.25244507e+02, 0., 0., 6.29475769e+02, 2.24487842e+03,
          5.04230133e+02, 1.19179456e+03, 1.05576990e+03, 4.70095264e+03,
          2.99034424e+03, 7.01267334e+03, 7.32138733e+02, 5.93723145e+02,
          6.43580750e+02, 4.44403778e+02, 1.62953162e+03, 1.85756677e+03,
          1.69498633e+03, 1.20431689e+03, 4.65888184e+03, 8.00608643e+03,
          1.87092273e+03, 8.57946960e+02, 5.17003320e+03, 28., 0.,
          3.98328934e+01, 4.03916840e+02, 1.50003164e+04, 3.68676172e+03,
          2.50114819e+03, 3.73535645e+03, 1.44498401e+03, 7.35736847e+01,
          2.61665764e+01, 1.99685349e+02, 3.30444287e+03, 2.07070267e+02,
          0., 0., 2.80159326e+03, 3.17596191e+03, 9.63229688e+03,
          9.38165918e+03, 1.45178174e+04, 1.24583777e+03, 3.87323193e+03,
          1.46632031e+04, 1.20761563e+04, 8.24138672e+03, 1.88002305e+04,
          1.94950586e+04, 1.15700645e+04, 2.49782983e+03, 1.88212000e+03,
          2.51681177e+03 ]
      - [ 1.95121429e+02, 4.51950977e+03, 4.48554688e+03, 2.50932178e+03,
          98., 7.41078568e+01, 8.14673080e+01, 8.22525635e+01,
          1.49628906e+03, 5.01137970e+02, 3.61649536e+03, 4.88276154e+02,
          1.64076813e+02, 1.56129044e+02, 2.23192902e+02, 4.05215988e+01,
          4.76482471e+03, 1.01506875e+04, 6.79332959e+03, 2.13739258e+02,
          3.93439966e+03, 2.90031665e+03, 1.78216626e+03, 7.27398071e+02,
          5.11705414e+02, 2.92370557e+03, 3.41119507e+03, 5.70982813e+03,
          9.84566016e+03, 3.34136426e+03, 2.64923633e+03, 4.56810693e+03,
          2.57319458e+02, 4.68376617e+01, 4.57745285e+01, 5.46915186e+03,
          8.77472852e+03, 4.80607959e+03, 4.77954102e+03, 1.13035291e+03,
          8.58139648e+02, 7.23009796e+01, 1.39167908e+02, 3.53093066e+03,
          4.20810547e+03, 3.21161206e+03, 3.14563916e+03, 3.37342567e+01,
          7.85026270e+03, 8.20074414e+03, 1.47417236e+04, 9.36200684e+03,
          8.72952246e+03, 9.43924988e+02, 3.29727710e+03, 1.53756943e+04,
          1.04335791e+04, 7.77579883e+03, 2.34024395e+04, 9.65209668e+03,
          1.35007842e+04, 4.41396057e+02, 4.45693787e+02, 4.45295557e+03 ]
      - [ 1.85162109e+02, 1.50960474e+03, 7.06159863e+03, 6.13793555e+03,
          1.59154755e+02, 7.42429352e+01, 4.58354416e+01, 1.06941895e+02,
          1.27150223e+02, 3.15070095e+01, 5.99612427e+02, 9.18088440e+02,
          1.06803513e+02, 3.91420097e+01, 1.18242737e+02, 3.16227770e+00,
          9.47666602e+03, 1.30392158e+04, 9.95895508e+03, 3.18928192e+02,
          1.45411499e+03, 4.64527466e+02, 6.78536194e+02, 4.37514893e+02,
          3.21828491e+03, 6.02155859e+03, 5.31245166e+03, 1.13421865e+04,
          8.11082764e+03, 2.70043140e+03, 1.74031946e+03, 1.00333081e+03,
          2.03301880e+02, 9.87658234e+01, 7.75265732e+01, 6.92641943e+03,
          1.25883447e+04, 7.27878223e+03, 1.84249097e+03, 7.56815247e+02,
          4.09992004e+02, 5.03119049e+01, 6.48903809e+01, 4.97326416e+03,
          5.23611670e+03, 1.23070520e+03, 1.31697556e+02, 1.20205475e+02,
          2.24999292e+03, 8.28347363e+03, 1.91663945e+04, 2.70227031e+04,
          4.37809424e+03, 1.34787769e+03, 4.97063184e+03, 8.94658887e+03,
          9.09862793e+03, 1.20134053e+04, 2.70328340e+04, 3.27797109e+04,
          3.80475293e+03, 3.37224097e+03, 3.96856177e+03, 2.19978516e+03 ]
      - [ 1.77183090e+02, 1.66255957e+03, 2.44314648e+03, 1.44543298e+03,
          66., 0., 0., 0., 102., 0., 0., 8.97300903e+02, 6.88575635e+03,
          9.78273926e+02, 4.50683197e+02, 1.56725601e+02, 1.58469443e+04,
          9.37684180e+03, 2.79131812e+03, 1.25603127e+02, 3.60262268e+02,
          4.87381104e+02, 1.65850922e+02, 7.30386353e+02, 4.13503223e+03,
          2.34538843e+03, 1.68319751e+03, 1.94113831e+03, 6.81176563e+03,
          2.29989478e+03, 1.80941406e+03, 6.13113672e+03, 78., 0.,
          1.26927582e+02, 3.14976733e+03, 3.47708691e+03, 2.75022217e+03,
          1.44311938e+03, 5.48865417e+02, 6.61965332e+03, 3.50647980e+02,
          6.71839355e+02, 3.92382397e+03, 6.79120801e+03, 2.19633789e+02,
          2.80421509e+02, 1.05063538e+02, 3.27818140e+03, 4.23828174e+03,
          7.54477246e+03, 9.17966602e+03, 6.54523047e+03, 1.23265881e+03,
          4.64612744e+03, 1.35223828e+04, 1.43567178e+04, 8.27738379e+03,
          1.41386221e+04, 8.91377246e+03, 1.16963896e+04, 1.80944067e+03,
          2.41317041e+03, 2.50332031e+03 ]
      - [ 5.26356430e+01, 1.62323560e+03, 1.85820129e+03, 9.03431543e+03,
          1.96624377e+03, 1.06570198e+02, 4.14047661e+01, 5.02475204e+01,
          24., 9.91616821e+01, 3.82428589e+02, 2.38974634e+03,
          1.03688269e+03, 4.47916443e+02, 1.52122177e+02, 1.49739307e+03,
          2.15344116e+03, 2.72988184e+03, 1.23456621e+04, 5.21036011e+02,
          1.13055701e+03, 3.80172516e+02, 9.72358948e+02, 4.19459839e+02,
          1.79097321e+02, 6.47323059e+02, 6.04842163e+02, 5.26407568e+03,
          1.21803232e+04, 1.93418494e+03, 2.65979419e+03, 4.86203094e+02,
          6.51708221e+01, 1.81040421e+02, 5.40481812e+02, 8.19024109e+02,
          7.82871289e+03, 7.58618115e+03, 4.70893341e+02, 1.87304382e+02,
          5.68734497e+02, 5.16299438e+01, 1.43612564e+02, 3.28876282e+02,
          1.90740686e+03, 2.30217285e+01, 6.69188309e+01, 2.49247341e+01,
          7.55021777e+03, 1.34720527e+04, 5.06232227e+03, 1.48792920e+03,
          1.97832910e+04, 3.74576001e+03, 8.80706836e+03, 1.34845771e+04,
          1.23861152e+04, 1.83120215e+04, 1.02454219e+04, 2.84526294e+03,
          2.38542988e+04, 4.55289941e+03, 7.68081543e+03, 6.82507080e+03 ]
      - [ 3.13829639e+03, 5.81745313e+03, 6.20335205e+03, 4.78430029e+03,
          3.27460815e+02, 6.96709824e+01, 0., 6.33307724e+01, 58.,
          3.60885449e+03, 3.81104175e+03, 5.97637549e+03, 1.11313843e+02,
          0., 2.30217285e+01, 6.02354492e+02, 5.62280579e+02,
          6.34989014e+03, 9.99890430e+03, 6.11143005e+02, 1.58150293e+03,
          7.22417175e+02, 5.15024841e+02, 1.11478386e+02, 1.13921106e+03,
          1.30883728e+03, 1.44466589e+03, 8.68357715e+03, 5.39252734e+03,
          9.67318848e+02, 7.94754639e+02, 8.74020630e+02, 114.,
          8.60232544e+00, 1.10732666e+02, 3.13297534e+03, 8.12760254e+03,
          8.68280566e+03, 6.99532666e+03, 3.75747095e+03, 7.69791443e+02,
          9.08036499e+01, 1.34164085e+01, 1.56092468e+03, 7.34650098e+03,
          4.75971680e+03, 4.40306055e+03, 3.16227770e+00, 1.00703164e+04,
          1.56949639e+04, 5.09665430e+03, 1.38342656e+04, 7.54438379e+03,
          2.57198334e+02, 1.77970728e+03, 4.32673975e+03, 1.57119824e+04,
          2.43963691e+04, 7.83688330e+03, 1.59409033e+04, 6.17113867e+03,
          2.89066986e+02, 2.13067065e+03, 4.37776514e+03 ]
      - [ 1.90434106e+03, 2.30043628e+03, 3.67298584e+03, 7.01420441e+01,
          2.21081314e+02, 3.92353821e+01, 7.95064468e+01, 1.30450470e+02,
          1.65064148e+02, 5.70779541e+02, 3.11860278e+03, 4.47080872e+02,
          5.27703285e+01, 1.10670769e+02, 1.56205006e+01, 7.15708008e+01,
          1.57466846e+03, 1.79092236e+03, 7.32634424e+03, 4.62416779e+02,
          1.27104138e+03, 7.82856445e+02, 3.97227234e+02, 5.99925659e+02,
          4.62970673e+02, 1.44310791e+03, 1.37915637e+03, 1.22898474e+03,
          7.02503613e+03, 1.20625781e+03, 1.24127356e+03, 8.68228882e+02,
          2.83356415e+02, 4.02943687e+01, 1.99108917e+02, 3.78675708e+03,
          5.86956006e+03, 3.55083960e+03, 2.58366431e+03, 7.95120557e+03,
          1.95503357e+03, 1.12016785e+02, 4.26380119e+01, 2.76182104e+03,
          2.48852661e+03, 2.84734009e+03, 1.93706396e+03, 8.73415451e+01,
          5.00994336e+03, 9.52266211e+03, 3.61599463e+03, 7.80726611e+03,
          6.03605518e+03, 1.35654639e+03, 4.40969971e+02, 1.54315117e+04,
          1.50356182e+04, 1.47906357e+04, 6.28341797e+03, 2.45228882e+03,
          1.10855078e+04, 6.82242432e+02, 4.13807617e+02, 3.50246484e+03 ]
      - [ 1.16753125e+03, 4.08243805e+02, 1.44699097e+03, 3.77546802e+03,
          6.72787207e+03, 2.50599289e+01, 0., 2.15870323e+01,
          1.59898285e+02, 3.67695541e+01, 1.75465965e+01, 3.10668823e+03,
          7.21656641e+03, 1.34375024e+03, 9.61781372e+02, 5.12136353e+02,
          5.87610938e+03, 4.61384717e+03, 6.45780518e+03, 2.12842505e+03,
          3.07065283e+03, 3.08858826e+02, 9.09661682e+02, 1.47569836e+03,
          1.75542065e+03, 3.18245459e+03, 2.23617090e+03, 1.94597559e+03,
          8.06528271e+03, 1.76389355e+03, 1.08575073e+03, 4.89054053e+03,
          8.98257141e+01, 1.74295540e+01, 1.75465965e+01, 1.76505707e+02,
          1.20498818e+04, 4.94447461e+03, 3.23527856e+03, 3.14441064e+03,
          4.89366302e+02, 8.01825256e+01, 5.57464981e+01, 2.79531665e+03,
          5.31581445e+03, 1.75718726e+03, 3.89333496e+02, 1.37822647e+02,
          2.82652100e+03, 1.89311218e+03, 8.86274023e+03, 1.00595293e+04,
          1.25121406e+04, 1.10821716e+03, 1.99805164e+03, 1.17283438e+04,
          7.28479590e+03, 4.58661963e+03, 1.52677637e+04, 1.65894961e+04,
          8.92822266e+03, 7.46328003e+02, 1.64090527e+03, 3.15336792e+03 ]
      - [ 36., 4.53917090e+03, 6.45935547e+03, 4.58741406e+03,
          1.31161316e+02, 5.69321136e+01, 2.40831909e+01, 3.25085602e+01,
          6.66981812e+01, 1.42467871e+03, 2.97642944e+03, 1.65215100e+03,
          1.01928391e+02, 4.38664360e+01, 0., 1.45602188e+01,
          3.60152832e+03, 1.64607043e+03, 1.47803357e+03, 3.92705151e+03,
          4.83225439e+03, 3.98647803e+03, 5.88464111e+03, 1.54463831e+03,
          4.35730286e+02, 4.05650586e+03, 2.93845886e+02, 1.46606738e+03,
          1.16969424e+04, 7.35629883e+03, 7.18794043e+03, 3.46477783e+03,
          6.14017525e+01, 1.75465965e+01, 9.14949493e+01, 2.67971924e+03,
          7.05755957e+03, 6.06556152e+03, 4.88801025e+03, 2.00882825e+03,
          1.53177173e+03, 9.52329559e+01, 1.03406120e+02, 1.77584058e+03,
          5.08001074e+03, 3.11182373e+03, 1.64544275e+03, 2.80816822e+01,
          7.18103467e+03, 5.92083984e+03, 7.94693457e+03, 1.16127646e+04,
          3.00224878e+03, 3.94309106e+03, 5.74149219e+03, 1.56825781e+04,
          1.23192031e+04, 1.03256055e+04, 9.22889941e+03, 1.21166182e+04,
          7.31775635e+03, 4.75336475e+03, 4.58315137e+03, 6.52638086e+03 ]
      - [ 1.31671655e+03, 1.66381210e+02, 7.50218964e+01, 5.83095169e+01,
          4.99597961e+02, 2.81712067e+02, 1.10637665e+02, 1.27992111e+02,
          5.88950577e+01, 1.72256104e+02, 40., 3.46129547e+02,
          5.41194141e+03, 7.52120056e+02, 0., 2.01391769e+02,
          4.33012500e+03, 2.47202734e+03, 4.19231104e+03, 1.33506123e+04,
          9.48932813e+03, 9.57703674e+02, 1.22928520e+02, 8.81545868e+01,
          2.29122269e+02, 2.18882675e+02, 1.59597397e+02, 1.13906074e+04,
          1.26554463e+04, 2.55512500e+03, 3.24080420e+03, 2.18002661e+03,
          7.33417969e+02, 1.20602463e+02, 5.99662170e+02, 5.85920227e+02,
          3.32231415e+02, 1.95461304e+02, 4.35487762e+02, 8.94844922e+03,
          4.13796436e+03, 5.10703430e+02, 8.01297974e+02, 5.90020569e+02,
          7.77326953e+03, 8.26584668e+03, 4.91439545e+02, 2.24674347e+02,
          3.82850269e+03, 4.80682129e+03, 6.12745654e+03, 8.98264258e+03,
          1.02394395e+04, 8.94157813e+03, 5.90499707e+03, 1.83638320e+04,
          1.04042275e+04, 6.94127686e+03, 9.35157813e+03, 1.12498828e+04,
          9.27474707e+03, 4.44623584e+03, 4.69831104e+03, 4.08114844e+03 ]
      - [ 1.62207556e+03, 1.48308154e+03, 1.16183240e+03, 5.41619922e+03,
          1.15150818e+02, 8.54791946e+01, 1.58113871e+01, 7.51836700e+01,
          5.60972107e+02, 5.26397934e+01, 4.25210037e+01, 5.51748926e+03,
          2.22647888e+02, 7.50423279e+02, 4.07185440e+01, 9.51114746e+02,
          3.42839795e+03, 1.32124133e+03, 3.82373749e+02, 1.05925879e+03,
          7.11138428e+03, 5.72096558e+02, 1.64778015e+02, 2.81485413e+02,
          3.24972870e+02, 3.32270538e+02, 5.13739929e+02, 7.59784058e+02,
          8.31221094e+03, 1.14823828e+03, 1.39236633e+03, 1.81615112e+03,
          3.94017525e+01, 1.01736557e+02, 7.30645752e+01, 2.81180542e+03,
          8.89390430e+03, 4.63768213e+03, 3.59164868e+03, 2.01857874e+03,
          4.59680371e+03, 1.18714462e+02, 1.79672913e+02, 5.88193176e+02,
          5.85363086e+03, 1.19956042e+03, 1.76215958e+02, 1.21655245e+01,
          6.03252344e+03, 4.08900122e+03, 6.43158203e+03, 9.77617285e+03,
          4.15060352e+03, 4.12810693e+03, 4.79701367e+03, 1.80408887e+04,
          1.76099629e+04, 1.07417021e+04, 8.41295313e+03, 9.85488379e+03,
          7.31166162e+03, 4.60011426e+03, 5.87488232e+03, 5.89071338e+03 ]
      - [ 4.39705658e+02, 7.15503784e+02, 1.63385925e+03, 4.54186377e+03,
          3.53022064e+02, 0., 4.47213602e+00, 2.55997269e+02,
          1.50297974e+03, 2.07110400e+03, 2.22341870e+03, 2.94580005e+03,
          1.20835167e+02, 4.44536682e+02, 4.71458405e+02, 3.98649219e+03,
          4.26636475e+03, 5.42502380e+02, 9.53980286e+02, 4.00947113e+02,
          4.42020410e+03, 2.88081299e+03, 3.47084814e+03, 1.50693250e+03,
          2.74449432e+02, 3.78581360e+02, 1.60954880e+02, 1.71133228e+03,
          7.83227637e+03, 1.53380811e+03, 1.43897327e+03, 2.90821899e+03,
          1.97928391e+02, 4.53892174e+01, 2.19544983e+01, 1.19367896e+03,
          6.49389551e+03, 3.82039673e+03, 3.63119214e+03, 5.63304541e+03,
          3.65723022e+03, 1.38164154e+02, 5.36698647e+01, 1.39478955e+03,
          2.54899243e+03, 3.63477930e+03, 4.23887207e+03, 2.37506445e+03,
          8.16460156e+03, 6.56745166e+03, 7.47663379e+03, 6.55969678e+03,
          2.49539795e+03, 5.10494727e+03, 5.10827930e+03, 1.24278467e+04,
          1.46417285e+04, 9.45018750e+03, 8.09602881e+03, 7.62515039e+03,
          3.77052832e+03, 7.08668750e+03, 4.18511426e+03, 3.89794897e+03 ]
      - [ 1.54085291e+03, 3.31651764e+02, 1.36278015e+03, 4.61444189e+03,
          3.02370313e+03, 0., 0., 0., 16., 0., 0., 1.25195847e+02,
          5.99149756e+03, 1.40560962e+03, 1.71279810e+03, 2.75017188e+03,
          1.94401917e+03, 2.61627832e+03, 2.57189575e+03, 6.17556396e+03,
          1.51278589e+03, 9.84436874e+01, 4.10126648e+01, 2.34152222e+01,
          8., 3.40002060e+01, 1.58134279e+01, 6.34447861e+01,
          4.30756152e+03, 2.98947998e+03, 3.32537158e+03, 4.78821680e+03,
          2.43405045e+02, 5.30385818e+01, 1.15762360e+02, 4.71173535e+03,
          1.00332568e+04, 5.22937354e+03, 4.81957666e+03, 3.41405518e+03,
          3.14671289e+03, 0., 3.46698723e+01, 2.38383154e+03,
          8.76096387e+03, 1.93064624e+03, 1.00915155e+03, 5.77108040e+01,
          6.08861768e+03, 5.68671924e+03, 6.97674121e+03, 1.58965791e+04,
          2.06561963e+03, 1.79700061e+03, 5.21711133e+03, 1.79444609e+04,
          2.07214766e+04, 7.50483838e+03, 4.39123828e+03, 9.07241309e+03,
          1.40831172e+04, 1.48588806e+03, 3.09940283e+03, 3.93603589e+03 ]
